<?xml version="1.0"?>
<opencv_storage>
<opencv_ml_knn>
  <format>3</format>
  <is_classifier>1</is_classifier>
  <default_k>10</default_k>
  <samples type_id="opencv-matrix">
    <rows>320</rows>
    <cols>5</cols>
    <dt>f</dt>
    <data>
      1.06483126e+00 1.03831422e+00 1.02072537e+00 1.13676727e+00
      1.05278635e+00 1.08718491e+00 1.01990044e+00 1.00990105e+00
      1.19417846e+00 9.88740087e-01 1.07715428e+00 1.04464281e+00
      1.02123547e+00 1.20240486e+00 9.81025875e-01 1.06483126e+00
      1.03831422e+00 1.02072537e+00 1.13676727e+00 1.05278635e+00
      1.10960329e+00 1.03537738e+00 1.01209676e+00 1.24254572e+00
      9.48161006e-01 1.11354172e+00 1.03240740e+00 1.02605212e+00
      1.24710345e+00 9.39604402e-01 1.06483126e+00 1.03831422e+00
      1.02072537e+00 1.13676727e+00 1.05278635e+00 1.07394361e+00
      1.03409088e+00 1.01543736e+00 1.16546535e+00 9.88415003e-01
      1.10960329e+00 1.03537738e+00 1.01209676e+00 1.24254572e+00
      9.48161006e-01 1.10960329e+00 1.03537738e+00 1.01209676e+00
      1.24254572e+00 9.48161006e-01 1.07394361e+00 1.03409088e+00
      1.01543736e+00 1.16546535e+00 9.88415003e-01 1.10960329e+00
      1.03537738e+00 1.01209676e+00 1.24254572e+00 9.48161006e-01
      1.08476281e+00 1.02921343e+00 1.02661598e+00 1.18062568e+00
      1.00747573e+00 1.06483126e+00 1.03831422e+00 1.02072537e+00
      1.13676727e+00 1.05278635e+00 1.08718491e+00 1.01990044e+00
      1.00990105e+00 1.19417846e+00 9.88740087e-01 1.08476281e+00
      1.02921343e+00 1.02661598e+00 1.18062568e+00 1.00747573e+00
      1.06483126e+00 1.03831422e+00 1.02072537e+00 1.13676727e+00
      1.05278635e+00 1.10570824e+00 1.01253128e+00 1.03984058e+00
      1.24163675e+00 9.36021268e-01 1.08199644e+00 1.02268434e+00
      1.02697837e+00 1.16885626e+00 9.88415003e-01 1.07394361e+00
      1.03409088e+00 1.01543736e+00 1.16546535e+00 9.88415003e-01
      1.08199644e+00 1.02268434e+00 1.02697837e+00 1.16885626e+00
      9.88415003e-01 1.06483126e+00 1.03831422e+00 1.02072537e+00
      1.13676727e+00 1.05278635e+00 1.07394361e+00 1.03409088e+00
      1.01543736e+00 1.16546535e+00 9.88415003e-01 1.09433961e+00
      1.02797198e+00 1.03846157e+00 1.22641504e+00 9.48161006e-01
      1.09433961e+00 1.02797198e+00 1.03846157e+00 1.22641504e+00
      9.48161006e-01 1.06483126e+00 1.03831422e+00 1.02072537e+00
      1.13676727e+00 1.05278635e+00 1.08476281e+00 1.02921343e+00
      1.02661598e+00 1.18062568e+00 1.00747573e+00 1.07394361e+00
      1.03409088e+00 1.01543736e+00 1.16546535e+00 9.88415003e-01
      1.06483126e+00 1.03831422e+00 1.02072537e+00 1.13676727e+00
      1.05278635e+00 1.08199644e+00 1.02268434e+00 1.02697837e+00
      1.16885626e+00 9.88415003e-01 1.09433961e+00 1.02797198e+00
      1.03846157e+00 1.22641504e+00 9.48161006e-01 1.11354172e+00
      1.03240740e+00 1.02605212e+00 1.24710345e+00 9.39604402e-01
      1.06483126e+00 1.03831422e+00 1.02072537e+00 1.13676727e+00
      1.05278635e+00 1.10570824e+00 1.01253128e+00 1.03984058e+00
      1.24163675e+00 9.36021268e-01 1.11354172e+00 1.03240740e+00
      1.02605212e+00 1.24710345e+00 9.39604402e-01 1.06483126e+00
      1.03831422e+00 1.02072537e+00 1.13676727e+00 1.05278635e+00
      1.07715428e+00 1.04464281e+00 1.02123547e+00 1.20240486e+00
      9.81025875e-01 1.10570824e+00 1.01253128e+00 1.03984058e+00
      1.24163675e+00 9.36021268e-01 1.07394361e+00 1.03409088e+00
      1.01543736e+00 1.16546535e+00 9.88415003e-01 1.07394361e+00
      1.03409088e+00 1.01543736e+00 1.16546535e+00 9.88415003e-01
      1.09433961e+00 1.02797198e+00 1.03846157e+00 1.22641504e+00
      9.48161006e-01 1.07394361e+00 1.03409088e+00 1.01543736e+00
      1.16546535e+00 9.88415003e-01 1.09433961e+00 1.02797198e+00
      1.03846157e+00 1.22641504e+00 9.48161006e-01 1.06483126e+00
      1.03831422e+00 1.02072537e+00 1.13676727e+00 1.05278635e+00
      1.07715428e+00 1.04464281e+00 1.02123547e+00 1.20240486e+00
      9.81025875e-01 1.06483126e+00 1.03831422e+00 1.02072537e+00
      1.13676727e+00 1.05278635e+00 1.07394361e+00 1.03409088e+00
      1.01543736e+00 1.16546535e+00 9.88415003e-01 1.10570824e+00
      1.01253128e+00 1.03984058e+00 1.24163675e+00 9.36021268e-01
      1.07394361e+00 1.03409088e+00 1.01543736e+00 1.16546535e+00
      9.88415003e-01 1.08476281e+00 1.02921343e+00 1.02661598e+00
      1.18062568e+00 1.00747573e+00 1.10570824e+00 1.01253128e+00
      1.03984058e+00 1.24163675e+00 9.36021268e-01 1.09433961e+00
      1.02797198e+00 1.03846157e+00 1.22641504e+00 9.48161006e-01
      1.11134458e+00 1.03414631e+00 1.01209676e+00 1.25470328e+00
      1.00125492e+00 1.07715428e+00 1.04464281e+00 1.02123547e+00
      1.20240486e+00 9.81025875e-01 1.10570824e+00 1.01253128e+00
      1.03984058e+00 1.24163675e+00 9.36021268e-01 1.10570824e+00
      1.01253128e+00 1.03984058e+00 1.24163675e+00 9.36021268e-01
      1.06483126e+00 1.03831422e+00 1.02072537e+00 1.13676727e+00
      1.05278635e+00 1.10960329e+00 1.03537738e+00 1.01209676e+00
      1.24254572e+00 9.48161006e-01 1.09433961e+00 1.02797198e+00
      1.03846157e+00 1.22641504e+00 9.48161006e-01 1.11134458e+00
      1.03414631e+00 1.01209676e+00 1.25470328e+00 1.00125492e+00
      1.11485648e+00 1.02292264e+00 1.04066980e+00 1.24864638e+00
      9.71804380e-01 1.04623652e+00 1.02518892e+00 1.01217043e+00
      1.13333333e+00 9.52204585e-01 1.07015705e+00 1.03117502e+00
      1.02066112e+00 1.16858637e+00 1.01450062e+00 1.11630845e+00
      1.03488374e+00 1.02669907e+00 1.23540246e+00 1.02536869e+00
      1.11125159e+00 1.02801120e+00 1.02750003e+00 1.23569489e+00
      1.00677228e+00 1.11125159e+00 1.02801120e+00 1.02750003e+00
      1.23569489e+00 1.00677228e+00 1.10592687e+00 1.04216862e+00
      1.02097905e+00 1.24337959e+00 9.56371427e-01 1.10314465e+00
      1.02052784e+00 1.03571427e+00 1.24025154e+00 9.53524351e-01
      1.06777894e+00 1.02863967e+00 1.01635993e+00 1.16371214e+00
      1.00067639e+00 1.11630845e+00 1.03488374e+00 1.02669907e+00
      1.23540246e+00 1.02536869e+00 1.11485648e+00 1.02292264e+00
      1.04066980e+00 1.24864638e+00 9.71804380e-01 1.07015705e+00
      1.03117502e+00 1.02066112e+00 1.16858637e+00 1.01450062e+00
      1.07279241e+00 1.01639342e+00 1.01601827e+00 1.17661095e+00
      9.72377002e-01 1.04623652e+00 1.02518892e+00 1.01217043e+00
      1.13333333e+00 9.52204585e-01 1.07279241e+00 1.01639342e+00
      1.01601827e+00 1.17661095e+00 9.72377002e-01 1.07279241e+00
      1.01639342e+00 1.01601827e+00 1.17661095e+00 9.72377002e-01
      1.11125159e+00 1.02801120e+00 1.02750003e+00 1.23569489e+00
      1.00677228e+00 1.10262823e+00 1.01892745e+00 1.02576113e+00
      1.23404253e+00 1.01048887e+00 1.11125159e+00 1.02801120e+00
      1.02750003e+00 1.23569489e+00 1.00677228e+00 1.11485648e+00
      1.02292264e+00 1.04066980e+00 1.24864638e+00 9.71804380e-01
      1.11125159e+00 1.02801120e+00 1.02750003e+00 1.23569489e+00
      1.00677228e+00 1.10262823e+00 1.01892745e+00 1.02576113e+00
      1.23404253e+00 1.01048887e+00 1.10262823e+00 1.01892745e+00
      1.02576113e+00 1.23404253e+00 1.01048887e+00 1.07202876e+00
      1.01445091e+00 1.00660789e+00 1.18367350e+00 1.00712299e+00
      1.10314465e+00 1.02052784e+00 1.03571427e+00 1.24025154e+00
      9.53524351e-01 1.07015705e+00 1.03117502e+00 1.02066112e+00
      1.16858637e+00 1.01450062e+00 1.06777894e+00 1.02863967e+00
      1.01635993e+00 1.16371214e+00 1.00067639e+00 1.10262823e+00
      1.01892745e+00 1.02576113e+00 1.23404253e+00 1.01048887e+00
      1.11630845e+00 1.03488374e+00 1.02669907e+00 1.23540246e+00
      1.02536869e+00 1.07015705e+00 1.03117502e+00 1.02066112e+00
      1.16858637e+00 1.01450062e+00 1.11125159e+00 1.02801120e+00
      1.02750003e+00 1.23569489e+00 1.00677228e+00 1.07015705e+00
      1.03117502e+00 1.02066112e+00 1.16858637e+00 1.01450062e+00
      1.11485648e+00 1.02292264e+00 1.04066980e+00 1.24864638e+00
      9.71804380e-01 1.10592687e+00 1.04216862e+00 1.02097905e+00
      1.24337959e+00 9.56371427e-01 1.11630845e+00 1.03488374e+00
      1.02669907e+00 1.23540246e+00 1.02536869e+00 1.10592687e+00
      1.04216862e+00 1.02097905e+00 1.24337959e+00 9.56371427e-01
      1.10592687e+00 1.04216862e+00 1.02097905e+00 1.24337959e+00
      9.56371427e-01 1.11125159e+00 1.02801120e+00 1.02750003e+00
      1.23569489e+00 1.00677228e+00 1.07015705e+00 1.03117502e+00
      1.02066112e+00 1.16858637e+00 1.01450062e+00 1.10262823e+00
      1.01892745e+00 1.02576113e+00 1.23404253e+00 1.01048887e+00
      1.04623652e+00 1.02518892e+00 1.01217043e+00 1.13333333e+00
      9.52204585e-01 1.06777894e+00 1.02863967e+00 1.01635993e+00
      1.16371214e+00 1.00067639e+00 1.07015705e+00 1.03117502e+00
      1.02066112e+00 1.16858637e+00 1.01450062e+00 1.10314465e+00
      1.02052784e+00 1.03571427e+00 1.24025154e+00 9.53524351e-01
      1.10262823e+00 1.01892745e+00 1.02576113e+00 1.23404253e+00
      1.01048887e+00 1.11630845e+00 1.03488374e+00 1.02669907e+00
      1.23540246e+00 1.02536869e+00 1.10592687e+00 1.04216862e+00
      1.02097905e+00 1.24337959e+00 9.56371427e-01 1.07202876e+00
      1.01445091e+00 1.00660789e+00 1.18367350e+00 1.00712299e+00
      1.10314465e+00 1.02052784e+00 1.03571427e+00 1.24025154e+00
      9.53524351e-01 1.06777894e+00 1.02863967e+00 1.01635993e+00
      1.16371214e+00 1.00067639e+00 1.10262823e+00 1.01892745e+00
      1.02576113e+00 1.23404253e+00 1.01048887e+00 1.10592687e+00
      1.04216862e+00 1.02097905e+00 1.24337959e+00 9.56371427e-01
      1.07202876e+00 1.01445091e+00 1.00660789e+00 1.18367350e+00
      1.00712299e+00 1.11125159e+00 1.02801120e+00 1.02750003e+00
      1.23569489e+00 1.00677228e+00 1.10592687e+00 1.04216862e+00
      1.02097905e+00 1.24337959e+00 9.56371427e-01 1.11485648e+00
      1.02292264e+00 1.04066980e+00 1.24864638e+00 9.71804380e-01
      1.11485648e+00 1.02292264e+00 1.04066980e+00 1.24864638e+00
      9.71804380e-01 1.10262823e+00 1.01892745e+00 1.02576113e+00
      1.23404253e+00 1.01048887e+00 1.10262823e+00 1.01892745e+00
      1.02576113e+00 1.23404253e+00 1.01048887e+00 1.04623652e+00
      1.02518892e+00 1.01217043e+00 1.13333333e+00 9.52204585e-01
      1.06198347e+00 1.01246107e+00 1.01347709e+00 1.17457736e+00
      9.89693105e-01 1.04022193e+00 1.01246107e+00 1.01092899e+00
      1.12621355e+00 9.92837250e-01 1.04840946e+00 1.02222228e+00
      1.01291990e+00 1.12309825e+00 1.00714958e+00 1.05013931e+00
      1.01851857e+00 1.01944447e+00 1.13091922e+00 9.70019996e-01
      1.06786704e+00 1.01592362e+00 1.01098907e+00 1.18108475e+00
      9.85392094e-01 1.04419887e+00 1.01265824e+00 1.00773191e+00
      1.12154698e+00 9.86070573e-01 1.04840946e+00 1.02222228e+00
      1.01291990e+00 1.12309825e+00 1.00714958e+00 1.07005489e+00
      1.03426790e+00 1.00533330e+00 1.19505489e+00 1.00293255e+00
      1.07005489e+00 1.03426790e+00 1.00533330e+00 1.19505489e+00
      1.00293255e+00 1.07005489e+00 1.03426790e+00 1.00533330e+00
      1.19505489e+00 1.00293255e+00 1.07005489e+00 1.03426790e+00
      1.00533330e+00 1.19505489e+00 1.00293255e+00 1.06639004e+00
      1.01582277e+00 1.02298856e+00 1.18102694e+00 1.00686502e+00
      1.04840946e+00 1.02222228e+00 1.01291990e+00 1.12309825e+00
      1.00714958e+00 1.06198347e+00 1.01246107e+00 1.01347709e+00
      1.17457736e+00 9.89693105e-01 1.07005489e+00 1.03426790e+00
      1.00533330e+00 1.19505489e+00 1.00293255e+00 1.06198347e+00
      1.01246107e+00 1.01347709e+00 1.17457736e+00 9.89693105e-01
      1.06005585e+00 1.00986838e+00 1.00543475e+00 1.15991271e+00
      9.69463170e-01 1.06639004e+00 1.01582277e+00 1.02298856e+00
      1.18102694e+00 1.00686502e+00 1.05013931e+00 1.01851857e+00
      1.01944447e+00 1.13091922e+00 9.70019996e-01 1.04840946e+00
      1.02222228e+00 1.01291990e+00 1.12309825e+00 1.00714958e+00
      1.04840946e+00 1.02222228e+00 1.01291990e+00 1.12309825e+00
      1.00714958e+00 1.06786704e+00 1.01592362e+00 1.01098907e+00
      1.18108475e+00 9.85392094e-01 1.04022193e+00 1.01246107e+00
      1.01092899e+00 1.12621355e+00 9.92837250e-01 1.05013931e+00
      1.01851857e+00 1.01944447e+00 1.13091922e+00 9.70019996e-01
      1.05013931e+00 1.01851857e+00 1.01944447e+00 1.13091922e+00
      9.70019996e-01 1.05013931e+00 1.01851857e+00 1.01944447e+00
      1.13091922e+00 9.70019996e-01 1.05013931e+00 1.01851857e+00
      1.01944447e+00 1.13091922e+00 9.70019996e-01 1.07005489e+00
      1.03426790e+00 1.00533330e+00 1.19505489e+00 1.00293255e+00
      1.06584358e+00 1.01342285e+00 1.01063836e+00 1.16902328e+00
      9.89896536e-01 1.06198347e+00 1.01246107e+00 1.01347709e+00
      1.17457736e+00 9.89693105e-01 1.07458568e+00 1.03333330e+00
      1.01084006e+00 1.20165741e+00 9.87249196e-01 1.07458568e+00
      1.03333330e+00 1.01084006e+00 1.20165741e+00 9.87249196e-01
      1.07458568e+00 1.03333330e+00 1.01084006e+00 1.20165741e+00
      9.87249196e-01 1.06584358e+00 1.01342285e+00 1.01063836e+00
      1.16902328e+00 9.89896536e-01 1.04840946e+00 1.02222228e+00
      1.01291990e+00 1.12309825e+00 1.00714958e+00 1.05013931e+00
      1.01851857e+00 1.01944447e+00 1.13091922e+00 9.70019996e-01
      1.06786704e+00 1.01592362e+00 1.01098907e+00 1.18108475e+00
      9.85392094e-01 1.07458568e+00 1.03333330e+00 1.01084006e+00
      1.20165741e+00 9.87249196e-01 1.05013931e+00 1.01851857e+00
      1.01944447e+00 1.13091922e+00 9.70019996e-01 1.06198347e+00
      1.01246107e+00 1.01347709e+00 1.17457736e+00 9.89693105e-01
      1.07375097e+00 1.02388060e+00 1.03767657e+00 1.14639175e+00
      8.92649949e-01 1.07040000e+00 1.03472221e+00 1.02901030e+00
      1.15546000e+00 8.96509469e-01 1.03752756e+00 1.01935482e+00
      1.01312912e+00 1.09050775e+00 8.94833148e-01 1.07040000e+00
      1.03472221e+00 1.02901030e+00 1.15546000e+00 8.96509469e-01
      1.03193033e+00 1.01863348e+00 1.00750005e+00 1.07547164e+00
      8.90002191e-01 1.03193033e+00 1.01863348e+00 1.00750005e+00
      1.07547164e+00 8.90002191e-01 1.06333077e+00 1.05660379e+00
      1.03782892e+00 1.15103400e+00 9.23563004e-01 1.06415403e+00
      1.02789700e+00 1.02857149e+00 1.15382636e+00 9.03161049e-01
      1.06060600e+00 1.02793300e+00 1.00886524e+00 1.13083744e+00
      8.86952162e-01 1.06333077e+00 1.05660379e+00 1.03782892e+00
      1.15103400e+00 9.23563004e-01 1.07375097e+00 1.02388060e+00
      1.03767657e+00 1.14639175e+00 8.92649949e-01 1.01997149e+00
      1.01129949e+00 1.00571430e+00 1.05706131e+00 9.00407791e-01
      1.03193033e+00 1.01863348e+00 1.00750005e+00 1.07547164e+00
      8.90002191e-01 1.03752756e+00 1.01935482e+00 1.01312912e+00
      1.09050775e+00 8.94833148e-01 1.03193033e+00 1.01863348e+00
      1.00750005e+00 1.07547164e+00 8.90002191e-01 1.06333077e+00
      1.05660379e+00 1.03782892e+00 1.15103400e+00 9.23563004e-01
      1.03193033e+00 1.01863348e+00 1.00750005e+00 1.07547164e+00
      8.90002191e-01 1.05149889e+00 1.03907633e+00 1.02162158e+00
      1.13326705e+00 9.17987406e-01 1.06415403e+00 1.02789700e+00
      1.02857149e+00 1.15382636e+00 9.03161049e-01 1.06415403e+00
      1.02789700e+00 1.02857149e+00 1.15382636e+00 9.03161049e-01
      1.01997149e+00 1.01129949e+00 1.00571430e+00 1.05706131e+00
      9.00407791e-01 1.06333077e+00 1.05660379e+00 1.03782892e+00
      1.15103400e+00 9.23563004e-01 1.07040000e+00 1.03472221e+00
      1.02901030e+00 1.15546000e+00 8.96509469e-01 1.07375097e+00
      1.02388060e+00 1.03767657e+00 1.14639175e+00 8.92649949e-01
      1.07262576e+00 1.03053439e+00 1.03803492e+00 1.15501428e+00
      8.92649949e-01 1.05149889e+00 1.03907633e+00 1.02162158e+00
      1.13326705e+00 9.17987406e-01 1.07040000e+00 1.03472221e+00
      1.02901030e+00 1.15546000e+00 8.96509469e-01 1.06415403e+00
      1.02789700e+00 1.02857149e+00 1.15382636e+00 9.03161049e-01
      1.03193033e+00 1.01863348e+00 1.00750005e+00 1.07547164e+00
      8.90002191e-01 1.06645322e+00 1.01670647e+00 1.03583062e+00
      1.15993106e+00 8.91028523e-01 1.06415403e+00 1.02789700e+00
      1.02857149e+00 1.15382636e+00 9.03161049e-01 1.07040000e+00
      1.03472221e+00 1.02901030e+00 1.15546000e+00 8.96509469e-01
      1.07375097e+00 1.02388060e+00 1.03767657e+00 1.14639175e+00
      8.92649949e-01 1.07262576e+00 1.03053439e+00 1.03803492e+00
      1.15501428e+00 8.92649949e-01 1.03193033e+00 1.01863348e+00
      1.00750005e+00 1.07547164e+00 8.90002191e-01 1.07040000e+00
      1.03472221e+00 1.02901030e+00 1.15546000e+00 8.96509469e-01
      1.07040000e+00 1.03472221e+00 1.02901030e+00 1.15546000e+00
      8.96509469e-01 1.07040000e+00 1.03472221e+00 1.02901030e+00
      1.15546000e+00 8.96509469e-01 1.07375097e+00 1.02388060e+00
      1.03767657e+00 1.14639175e+00 8.92649949e-01 1.03193033e+00
      1.01863348e+00 1.00750005e+00 1.07547164e+00 8.90002191e-01
      1.06415403e+00 1.02789700e+00 1.02857149e+00 1.15382636e+00
      9.03161049e-01 1.05149889e+00 1.03907633e+00 1.02162158e+00
      1.13326705e+00 9.17987406e-01 1.01997149e+00 1.01129949e+00
      1.00571430e+00 1.05706131e+00 9.00407791e-01 1.07262576e+00
      1.03053439e+00 1.03803492e+00 1.15501428e+00 8.92649949e-01
      1.05149889e+00 1.03907633e+00 1.02162158e+00 1.13326705e+00
      9.17987406e-01 1.03193033e+00 1.01863348e+00 1.00750005e+00
      1.07547164e+00 8.90002191e-01 1.03193033e+00 1.01863348e+00
      1.00750005e+00 1.07547164e+00 8.90002191e-01 1.03193033e+00
      1.01863348e+00 1.00750005e+00 1.07547164e+00 8.90002191e-01
      1.03752756e+00 1.01935482e+00 1.01312912e+00 1.09050775e+00
      8.94833148e-01 1.06333077e+00 1.05660379e+00 1.03782892e+00
      1.15103400e+00 9.23563004e-01 1.07262576e+00 1.03053439e+00
      1.03803492e+00 1.15501428e+00 8.92649949e-01 1.05149889e+00
      1.03907633e+00 1.02162158e+00 1.13326705e+00 9.17987406e-01
      1.06060600e+00 1.02793300e+00 1.00886524e+00 1.13083744e+00
      8.86952162e-01 1.01997149e+00 1.01129949e+00 1.00571430e+00
      1.05706131e+00 9.00407791e-01 1.05149889e+00 1.03907633e+00
      1.02162158e+00 1.13326705e+00 9.17987406e-01 1.03752756e+00
      1.01935482e+00 1.01312912e+00 1.09050775e+00 8.94833148e-01
      1.07375097e+00 1.02388060e+00 1.03767657e+00 1.14639175e+00
      8.92649949e-01 1.05149889e+00 1.03907633e+00 1.02162158e+00
      1.13326705e+00 9.17987406e-01 1.03193033e+00 1.01863348e+00
      1.00750005e+00 1.07547164e+00 8.90002191e-01 1.05149889e+00
      1.03907633e+00 1.02162158e+00 1.13326705e+00 9.17987406e-01
      1.07692313e+00 1.10057473e+00 1.03626943e+00 1.18660641e+00
      9.52951133e-01 1.04453778e+00 1.06995881e+00 1.02511418e+00
      1.11932778e+00 8.70629370e-01 1.06465900e+00 1.09045231e+00
      1.03323257e+00 1.14791846e+00 9.15671170e-01 1.05116701e+00
      1.08739841e+00 1.00628936e+00 1.09874332e+00 9.22388256e-01
      1.05750227e+00 1.05960262e+00 1.01136363e+00 1.13027847e+00
      9.76941645e-01 1.07161343e+00 1.07255518e+00 1.03710246e+00
      1.16366065e+00 8.69015336e-01 1.04453778e+00 1.06995881e+00
      1.02511418e+00 1.11932778e+00 8.70629370e-01 1.08057296e+00
      1.06666672e+00 1.03924918e+00 1.19118810e+00 8.91637564e-01
      1.06677938e+00 1.04838705e+00 1.03340292e+00 1.15378881e+00
      8.76569808e-01 1.08057296e+00 1.06666672e+00 1.03924918e+00
      1.19118810e+00 8.91637564e-01 1.08057296e+00 1.06666672e+00
      1.03924918e+00 1.19118810e+00 8.91637564e-01 1.06465900e+00
      1.09045231e+00 1.03323257e+00 1.14791846e+00 9.15671170e-01
      1.04205215e+00 1.06122446e+00 1.03003001e+00 1.12026918e+00
      9.84099329e-01 1.07692313e+00 1.10057473e+00 1.03626943e+00
      1.18660641e+00 9.52951133e-01 1.05750227e+00 1.05960262e+00
      1.01136363e+00 1.13027847e+00 9.76941645e-01 1.05116701e+00
      1.08739841e+00 1.00628936e+00 1.09874332e+00 9.22388256e-01
      1.04453778e+00 1.06995881e+00 1.02511418e+00 1.11932778e+00
      8.70629370e-01 1.04453778e+00 1.06995881e+00 1.02511418e+00
      1.11932778e+00 8.70629370e-01 1.06465900e+00 1.09045231e+00
      1.03323257e+00 1.14791846e+00 9.15671170e-01 1.07726860e+00
      1.05740178e+00 1.03786576e+00 1.18898606e+00 9.13442194e-01
      1.05750227e+00 1.05960262e+00 1.01136363e+00 1.13027847e+00
      9.76941645e-01 1.04453778e+00 1.06995881e+00 1.02511418e+00
      1.11932778e+00 8.70629370e-01 1.07692313e+00 1.10057473e+00
      1.03626943e+00 1.18660641e+00 9.52951133e-01 1.08057296e+00
      1.06666672e+00 1.03924918e+00 1.19118810e+00 8.91637564e-01
      1.04205215e+00 1.06122446e+00 1.03003001e+00 1.12026918e+00
      9.84099329e-01 1.04453778e+00 1.06995881e+00 1.02511418e+00
      1.11932778e+00 8.70629370e-01 1.04226613e+00 1.07042253e+00
      1.00628936e+00 1.10071945e+00 9.21574652e-01 1.04205215e+00
      1.06122446e+00 1.03003001e+00 1.12026918e+00 9.84099329e-01
      1.07692313e+00 1.10057473e+00 1.03626943e+00 1.18660641e+00
      9.52951133e-01 1.05750227e+00 1.05960262e+00 1.01136363e+00
      1.13027847e+00 9.76941645e-01 1.05116701e+00 1.08739841e+00
      1.00628936e+00 1.09874332e+00 9.22388256e-01 1.05116701e+00
      1.08739841e+00 1.00628936e+00 1.09874332e+00 9.22388256e-01
      1.04226613e+00 1.07042253e+00 1.00628936e+00 1.10071945e+00
      9.21574652e-01 1.04453778e+00 1.06995881e+00 1.02511418e+00
      1.11932778e+00 8.70629370e-01 1.05750227e+00 1.05960262e+00
      1.01136363e+00 1.13027847e+00 9.76941645e-01 1.05116701e+00
      1.08739841e+00 1.00628936e+00 1.09874332e+00 9.22388256e-01
      1.07692313e+00 1.10057473e+00 1.03626943e+00 1.18660641e+00
      9.52951133e-01 1.04453778e+00 1.06995881e+00 1.02511418e+00
      1.11932778e+00 8.70629370e-01 1.08057296e+00 1.06666672e+00
      1.03924918e+00 1.19118810e+00 8.91637564e-01 1.05750227e+00
      1.05960262e+00 1.01136363e+00 1.13027847e+00 9.76941645e-01
      1.04226613e+00 1.07042253e+00 1.00628936e+00 1.10071945e+00
      9.21574652e-01 1.04453778e+00 1.06995881e+00 1.02511418e+00
      1.11932778e+00 8.70629370e-01 1.04205215e+00 1.06122446e+00
      1.03003001e+00 1.12026918e+00 9.84099329e-01 1.07726860e+00
      1.05740178e+00 1.03786576e+00 1.18898606e+00 9.13442194e-01
      1.04453778e+00 1.06995881e+00 1.02511418e+00 1.11932778e+00
      8.70629370e-01 1.04453778e+00 1.06995881e+00 1.02511418e+00
      1.11932778e+00 8.70629370e-01 1.04226613e+00 1.07042253e+00
      1.00628936e+00 1.10071945e+00 9.21574652e-01 1.04453778e+00
      1.06995881e+00 1.02511418e+00 1.11932778e+00 8.70629370e-01
      1.05116701e+00 1.08739841e+00 1.00628936e+00 1.09874332e+00
      9.22388256e-01 1.04453778e+00 1.06995881e+00 1.02511418e+00
      1.11932778e+00 8.70629370e-01 1.07692313e+00 1.10057473e+00
      1.03626943e+00 1.18660641e+00 9.52951133e-01 1.06465900e+00
      1.09045231e+00 1.03323257e+00 1.14791846e+00 9.15671170e-01
      1.04453778e+00 1.06995881e+00 1.02511418e+00 1.11932778e+00
      8.70629370e-01 1.07726860e+00 1.05740178e+00 1.03786576e+00
      1.18898606e+00 9.13442194e-01 1.08057296e+00 1.06666672e+00
      1.03924918e+00 1.19118810e+00 8.91637564e-01 1.04453778e+00
      1.06995881e+00 1.02511418e+00 1.11932778e+00 8.70629370e-01
      1.06465900e+00 1.09045231e+00 1.03323257e+00 1.14791846e+00
      9.15671170e-01 1.04453778e+00 1.06995881e+00 1.02511418e+00
      1.11932778e+00 8.70629370e-01 1.08057296e+00 1.06666672e+00
      1.03924918e+00 1.19118810e+00 8.91637564e-01 1.06465900e+00
      1.09045231e+00 1.03323257e+00 1.14791846e+00 9.15671170e-01
      1.06047332e+00 1.05363989e+00 1.01522839e+00 1.14543819e+00
      9.77881432e-01 1.04837286e+00 1.01329792e+00 1.02493763e+00
      1.12725651e+00 8.57176602e-01 1.03000879e+00 1.01503754e+00
      1.02179837e+00 1.09443951e+00 8.57381582e-01 1.03000879e+00
      1.01503754e+00 1.02179837e+00 1.09443951e+00 8.57381582e-01
      1.02681661e+00 1.02120137e+00 1.01346803e+00 1.07266438e+00
      8.41046810e-01 1.06047332e+00 1.05363989e+00 1.01522839e+00
      1.14543819e+00 9.77881432e-01 1.02681661e+00 1.02120137e+00
      1.01346803e+00 1.07266438e+00 8.41046810e-01 1.02872062e+00
      1.02439022e+00 1.01337790e+00 1.07919931e+00 8.46409738e-01
      1.05531168e+00 1.02531648e+00 1.04250002e+00 1.14394367e+00
      9.76804614e-01 1.03125000e+00 1.02888083e+00 1.01337790e+00
      1.07638884e+00 8.41046810e-01 1.03524232e+00 1.03199995e+00
      1.01683497e+00 1.09251106e+00 8.46409738e-01 1.02681661e+00
      1.02120137e+00 1.01346803e+00 1.07266438e+00 8.41046810e-01
      1.02681661e+00 1.02120137e+00 1.01346803e+00 1.07266438e+00
      8.41046810e-01 1.04837286e+00 1.01569510e+00 1.02631581e+00
      1.12987685e+00 8.84277225e-01 1.05414844e+00 1.03857565e+00
      1.01754391e+00 1.14263606e+00 1.01904166e+00 1.03524232e+00
      1.03199995e+00 1.01683497e+00 1.09251106e+00 8.46409738e-01
      1.03524232e+00 1.03199995e+00 1.01683497e+00 1.09251106e+00
      8.46409738e-01 1.05531168e+00 1.02531648e+00 1.04250002e+00
      1.14394367e+00 9.76804614e-01 1.04837286e+00 1.01329792e+00
      1.02493763e+00 1.12725651e+00 8.57176602e-01 1.03125000e+00
      1.02888083e+00 1.01337790e+00 1.07638884e+00 8.41046810e-01
      1.04837286e+00 1.01569510e+00 1.02631581e+00 1.12987685e+00
      8.84277225e-01 1.04837286e+00 1.01329792e+00 1.02493763e+00
      1.12725651e+00 8.57176602e-01 1.06047332e+00 1.05363989e+00
      1.01522839e+00 1.14543819e+00 9.77881432e-01 1.02681661e+00
      1.02120137e+00 1.01346803e+00 1.07266438e+00 8.41046810e-01
      1.03125000e+00 1.02888083e+00 1.01337790e+00 1.07638884e+00
      8.41046810e-01 1.02681661e+00 1.02120137e+00 1.01346803e+00
      1.07266438e+00 8.41046810e-01 1.05414844e+00 1.03857565e+00
      1.01754391e+00 1.14263606e+00 1.01904166e+00 1.06047332e+00
      1.05363989e+00 1.01522839e+00 1.14543819e+00 9.77881432e-01
      1.03000879e+00 1.01503754e+00 1.02179837e+00 1.09443951e+00
      8.57381582e-01 1.04837286e+00 1.01569510e+00 1.02631581e+00
      1.12987685e+00 8.84277225e-01 1.05414844e+00 1.03857565e+00
      1.01754391e+00 1.14263606e+00 1.01904166e+00 1.06508350e+00
      1.03906250e+00 1.04007292e+00 1.14889729e+00 1.05764043e+00
      1.03524232e+00 1.03199995e+00 1.01683497e+00 1.09251106e+00
      8.46409738e-01 1.02681661e+00 1.02120137e+00 1.01346803e+00
      1.07266438e+00 8.41046810e-01 1.04837286e+00 1.01569510e+00
      1.02631581e+00 1.12987685e+00 8.84277225e-01 1.02872062e+00
      1.02439022e+00 1.01337790e+00 1.07919931e+00 8.46409738e-01
      1.04837286e+00 1.01569510e+00 1.02631581e+00 1.12987685e+00
      8.84277225e-01 1.06047332e+00 1.05363989e+00 1.01522839e+00
      1.14543819e+00 9.77881432e-01 1.06047332e+00 1.05363989e+00
      1.01522839e+00 1.14543819e+00 9.77881432e-01 1.03125000e+00
      1.02888083e+00 1.01337790e+00 1.07638884e+00 8.41046810e-01</data></samples>
  <responses type_id="opencv-matrix">
    <rows>320</rows>
    <cols>1</cols>
    <dt>f</dt>
    <data>
      10. 10. 10. 10. 10. 10. 10. 10. 10. 10. 10. 10. 10. 10. 10. 10.
      10. 10. 10. 10. 10. 10. 10. 10. 10. 10. 10. 10. 10. 10. 10. 10.
      10. 10. 10. 10. 10. 10. 10. 10. 10. 10. 10. 10. 10. 10. 10. 10.
      10. 10. 10. 10. 10. 10. 10. 10. 10. 10. 10. 10. 10. 10. 10. 10.
      10. 10. 10. 10. 10. 10. 10. 10. 10. 10. 10. 10. 10. 10. 10. 10.
      10. 10. 10. 10. 10. 10. 10. 10. 10. 10. 10. 10. 10. 10. 10. 10.
      10. 10. 10. 10. 10. 10. 10. 10. 10. 10. 10. 10. 10. 10. 10. 10.
      10. 10. 10. 10. 10. 10. 10. 10. 10. 10. 10. 10. 10. 10. 10. 10.
      10. 10. 10. 10. 10. 10. 10. 10. 10. 10. 10. 10. 10. 10. 10. 10.
      10. 10. 10. 10. 10. 10. 10. 10. 10. 10. 10. 10. 10. 10. 10. 10.
      13. 13. 13. 13. 13. 13. 13. 13. 13. 13. 13. 13. 13. 13. 13. 13.
      13. 13. 13. 13. 13. 13. 13. 13. 13. 13. 13. 13. 13. 13. 13. 13.
      13. 13. 13. 13. 13. 13. 13. 13. 13. 13. 13. 13. 13. 13. 13. 13.
      13. 13. 13. 13. 13. 13. 13. 13. 13. 13. 13. 13. 13. 13. 13. 13.
      13. 13. 13. 13. 13. 13. 13. 13. 13. 13. 13. 13. 13. 13. 13. 13.
      13. 13. 13. 13. 13. 13. 13. 13. 13. 13. 13. 13. 13. 13. 13. 13.
      13. 13. 13. 13. 13. 13. 13. 13. 13. 13. 13. 13. 13. 13. 13. 13.
      13. 13. 13. 13. 13. 13. 13. 13. 13. 13. 13. 13. 13. 13. 13. 13.
      13. 13. 13. 13. 13. 13. 13. 13. 13. 13. 13. 13. 13. 13. 13. 13.
      13. 13. 13. 13. 13. 13. 13. 13. 13. 13. 13. 13. 13. 13. 13. 13.</data></responses></opencv_ml_knn>
</opencv_storage>
