<?xml version="1.0"?>
<opencv_storage>
<opencv_ml_knn>
  <format>3</format>
  <is_classifier>1</is_classifier>
  <default_k>10</default_k>
  <samples type_id="opencv-matrix">
    <rows>640</rows>
    <cols>5</cols>
    <dt>f</dt>
    <data>
      1.36315227e+00 4.48453617e+00 1.02024293e+00 1.52076674e+00
      7.97640145e-01 1.61572695e+00 5. 1.02072537e+00 1.78885853e+00
      9.37733293e-01 1.37061405e+00 7.28333330e+00 1.01550388e+00
      1.47368419e+00 8.61374319e-01 1.64624810e+00 1.17142859e+01
      1.04999995e+00 1.79212308e+00 9.32824850e-01 1.64624810e+00
      1.17142859e+01 1.04999995e+00 1.79212308e+00 9.32824850e-01
      1.53469384e+00 4.56666679e+01 1.01079917e+00 1.67053318e+00
      8.80201459e-01 1.39890707e+00 2.93788815e+00 1.01499999e+00
      1.56065571e+00 8.48043323e-01 1.65586424e+00 9.20454502e+00
      1.03791463e+00 1.81378949e+00 9.46654677e-01 1.64274573e+00
      6.46774197e+00 1.03311253e+00 1.84327376e+00 9.47353899e-01
      1.53469384e+00 4.56666679e+01 1.01079917e+00 1.67053318e+00
      8.80201459e-01 1.37061405e+00 7.28333330e+00 1.01550388e+00
      1.47368419e+00 8.61374319e-01 1.65954196e+00 8.29787254e+00
      1.04347825e+00 1.83482325e+00 9.27617192e-01 1.61561561e+00
      5.19736862e+00 1.02682924e+00 1.80445981e+00 8.68803799e-01
      1.64274573e+00 6.46774197e+00 1.03311253e+00 1.84327376e+00
      9.47353899e-01 1.54305553e+00 3.63025212e+00 1.05642629e+00
      1.74017787e+00 8.77781987e-01 1.37061405e+00 7.28333330e+00
      1.01550388e+00 1.47368419e+00 8.61374319e-01 1.65954196e+00
      8.29787254e+00 1.04347825e+00 1.83482325e+00 9.27617192e-01
      1.36315227e+00 4.48453617e+00 1.02024293e+00 1.52076674e+00
      7.97640145e-01 1.65954196e+00 8.29787254e+00 1.04347825e+00
      1.83482325e+00 9.27617192e-01 1.54305553e+00 3.63025212e+00
      1.05642629e+00 1.74017787e+00 8.77781987e-01 1.37061405e+00
      7.28333330e+00 1.01550388e+00 1.47368419e+00 8.61374319e-01
      1.65954196e+00 8.29787254e+00 1.04347825e+00 1.83482325e+00
      9.27617192e-01 1.61572695e+00 5. 1.02072537e+00 1.78885853e+00
      9.37733293e-01 1.39890707e+00 2.93788815e+00 1.01499999e+00
      1.56065571e+00 8.48043323e-01 1.36315227e+00 4.48453617e+00
      1.02024293e+00 1.52076674e+00 7.97640145e-01 1.61572695e+00 5.
      1.02072537e+00 1.78885853e+00 9.37733293e-01 1.61572695e+00 5.
      1.02072537e+00 1.78885853e+00 9.37733293e-01 1.53469384e+00
      4.56666679e+01 1.01079917e+00 1.67053318e+00 8.80201459e-01
      1.39890707e+00 2.93788815e+00 1.01499999e+00 1.56065571e+00
      8.48043323e-01 1.53469384e+00 4.56666679e+01 1.01079917e+00
      1.67053318e+00 8.80201459e-01 1.36315227e+00 4.48453617e+00
      1.02024293e+00 1.52076674e+00 7.97640145e-01 1.54305553e+00
      3.63025212e+00 1.05642629e+00 1.74017787e+00 8.77781987e-01
      1.61561561e+00 5.19736862e+00 1.02682924e+00 1.80445981e+00
      8.68803799e-01 1.37061405e+00 7.28333330e+00 1.01550388e+00
      1.47368419e+00 8.61374319e-01 1.37061405e+00 7.28333330e+00
      1.01550388e+00 1.47368419e+00 8.61374319e-01 1.39890707e+00
      2.93788815e+00 1.01499999e+00 1.56065571e+00 8.48043323e-01
      1.65586424e+00 9.20454502e+00 1.03791463e+00 1.81378949e+00
      9.46654677e-01 1.37061405e+00 7.28333330e+00 1.01550388e+00
      1.47368419e+00 8.61374319e-01 1.61561561e+00 5.19736862e+00
      1.02682924e+00 1.80445981e+00 8.68803799e-01 1.64624810e+00
      1.17142859e+01 1.04999995e+00 1.79212308e+00 9.32824850e-01
      1.39890707e+00 2.93788815e+00 1.01499999e+00 1.56065571e+00
      8.48043323e-01 1.65586424e+00 9.20454502e+00 1.03791463e+00
      1.81378949e+00 9.46654677e-01 1.65586424e+00 9.20454502e+00
      1.03791463e+00 1.81378949e+00 9.46654677e-01 1.37061405e+00
      7.28333330e+00 1.01550388e+00 1.47368419e+00 8.61374319e-01
      1.54305553e+00 3.63025212e+00 1.05642629e+00 1.74017787e+00
      8.77781987e-01 1.37061405e+00 7.28333330e+00 1.01550388e+00
      1.47368419e+00 8.61374319e-01 1.53469384e+00 4.56666679e+01
      1.01079917e+00 1.67053318e+00 8.80201459e-01 1.64274573e+00
      6.46774197e+00 1.03311253e+00 1.84327376e+00 9.47353899e-01
      1.36315227e+00 4.48453617e+00 1.02024293e+00 1.52076674e+00
      7.97640145e-01 1.36315227e+00 4.48453617e+00 1.02024293e+00
      1.52076674e+00 7.97640145e-01 1.36315227e+00 4.48453617e+00
      1.02024293e+00 1.52076674e+00 7.97640145e-01 1.37061405e+00
      7.28333330e+00 1.01550388e+00 1.47368419e+00 8.61374319e-01
      1.37061405e+00 7.28333330e+00 1.01550388e+00 1.47368419e+00
      8.61374319e-01 1.54305553e+00 3.63025212e+00 1.05642629e+00
      1.74017787e+00 8.77781987e-01 1.61561561e+00 5.19736862e+00
      1.02682924e+00 1.80445981e+00 8.68803799e-01 1.54305553e+00
      3.63025212e+00 1.05642629e+00 1.74017787e+00 8.77781987e-01
      1.64274573e+00 6.46774197e+00 1.03311253e+00 1.84327376e+00
      9.47353899e-01 1.61572695e+00 5. 1.02072537e+00 1.78885853e+00
      9.37733293e-01 1.61572695e+00 5. 1.02072537e+00 1.78885853e+00
      9.37733293e-01 1.64624810e+00 1.17142859e+01 1.04999995e+00
      1.79212308e+00 9.32824850e-01 1.66592431e+00 4.37681150e+00
      1.04100943e+00 1.85300672e+00 9.61123288e-01 1.66592431e+00
      4.37681150e+00 1.04100943e+00 1.85300672e+00 9.61123288e-01
      1.66592431e+00 4.37681150e+00 1.04100943e+00 1.85300672e+00
      9.61123288e-01 1.37168145e+00 5.60655737e+00 1.03367007e+00
      1.53982306e+00 8.08115423e-01 1.66592431e+00 4.37681150e+00
      1.04100943e+00 1.85300672e+00 9.61123288e-01 1.54738879e+00
      3.38888893e+01 1.01780415e+00 1.73307538e+00 8.77314687e-01
      1.45541406e+00 1.21428576e+01 1.02094245e+00 1.60509551e+00
      8.41305196e-01 1.39524519e+00 4.61038971e+00 1.03780067e+00
      1.55126297e+00 8.34185958e-01 1.53166986e+00 1.18000002e+01
      1.01013517e+00 1.65834928e+00 8.92093837e-01 1.68292677e+00
      5.51020432e+00 1.03457451e+00 1.91268289e+00 9.84394491e-01
      1.39524519e+00 4.61038971e+00 1.03780067e+00 1.55126297e+00
      8.34185958e-01 1.37168145e+00 5.60655737e+00 1.03367007e+00
      1.53982306e+00 8.08115423e-01 1.66962302e+00 9.77419376e+00
      1.03816795e+00 1.84478939e+00 9.20925438e-01 1.66962302e+00
      9.77419376e+00 1.03816795e+00 1.84478939e+00 9.20925438e-01
      1.68292677e+00 5.51020432e+00 1.03457451e+00 1.91268289e+00
      9.84394491e-01 1.66592431e+00 4.37681150e+00 1.04100943e+00
      1.85300672e+00 9.61123288e-01 1.53166986e+00 1.18000002e+01
      1.01013517e+00 1.65834928e+00 8.92093837e-01 1.39524519e+00
      4.61038971e+00 1.03780067e+00 1.55126297e+00 8.34185958e-01
      1.39524519e+00 4.61038971e+00 1.03780067e+00 1.55126297e+00
      8.34185958e-01 1.66592431e+00 4.37681150e+00 1.04100943e+00
      1.85300672e+00 9.61123288e-01 1.68292677e+00 5.51020432e+00
      1.03457451e+00 1.91268289e+00 9.84394491e-01 1.66962302e+00
      9.77419376e+00 1.03816795e+00 1.84478939e+00 9.20925438e-01
      1.69078946e+00 5.78431368e+00 1.04301071e+00 1.87594616e+00
      9.60901260e-01 1.39524519e+00 4.61038971e+00 1.03780067e+00
      1.55126297e+00 8.34185958e-01 1.45541406e+00 1.21428576e+01
      1.02094245e+00 1.60509551e+00 8.41305196e-01 1.53166986e+00
      1.18000002e+01 1.01013517e+00 1.65834928e+00 8.92093837e-01
      1.61572051e+00 2.46666660e+01 1.03243244e+00 1.70305681e+00
      9.45055544e-01 1.39524519e+00 4.61038971e+00 1.03780067e+00
      1.55126297e+00 8.34185958e-01 1.69078946e+00 5.78431368e+00
      1.04301071e+00 1.87594616e+00 9.60901260e-01 1.45541406e+00
      1.21428576e+01 1.02094245e+00 1.60509551e+00 8.41305196e-01
      1.69078946e+00 5.78431368e+00 1.04301071e+00 1.87594616e+00
      9.60901260e-01 1.66592431e+00 4.37681150e+00 1.04100943e+00
      1.85300672e+00 9.61123288e-01 1.39524519e+00 4.61038971e+00
      1.03780067e+00 1.55126297e+00 8.34185958e-01 1.45541406e+00
      1.21428576e+01 1.02094245e+00 1.60509551e+00 8.41305196e-01
      1.70860922e+00 5.58823538e+00 1.02555907e+00 1.91503823e+00
      7.89210081e-01 1.61572051e+00 2.46666660e+01 1.03243244e+00
      1.70305681e+00 9.45055544e-01 1.37168145e+00 5.60655737e+00
      1.03367007e+00 1.53982306e+00 8.08115423e-01 1.54738879e+00
      3.38888893e+01 1.01780415e+00 1.73307538e+00 8.77314687e-01
      1.45541406e+00 1.21428576e+01 1.02094245e+00 1.60509551e+00
      8.41305196e-01 1.66962302e+00 9.77419376e+00 1.03816795e+00
      1.84478939e+00 9.20925438e-01 1.45541406e+00 1.21428576e+01
      1.02094245e+00 1.60509551e+00 8.41305196e-01 1.68292677e+00
      5.51020432e+00 1.03457451e+00 1.91268289e+00 9.84394491e-01
      1.70860922e+00 5.58823538e+00 1.02555907e+00 1.91503823e+00
      7.89210081e-01 1.37168145e+00 5.60655737e+00 1.03367007e+00
      1.53982306e+00 8.08115423e-01 1.39524519e+00 4.61038971e+00
      1.03780067e+00 1.55126297e+00 8.34185958e-01 1.53166986e+00
      1.18000002e+01 1.01013517e+00 1.65834928e+00 8.92093837e-01
      1.66962302e+00 9.77419376e+00 1.03816795e+00 1.84478939e+00
      9.20925438e-01 1.70860922e+00 5.58823538e+00 1.02555907e+00
      1.91503823e+00 7.89210081e-01 1.68292677e+00 5.51020432e+00
      1.03457451e+00 1.91268289e+00 9.84394491e-01 1.68292677e+00
      5.51020432e+00 1.03457451e+00 1.91268289e+00 9.84394491e-01
      1.66962302e+00 9.77419376e+00 1.03816795e+00 1.84478939e+00
      9.20925438e-01 1.66962302e+00 9.77419376e+00 1.03816795e+00
      1.84478939e+00 9.20925438e-01 1.39524519e+00 4.61038971e+00
      1.03780067e+00 1.55126297e+00 8.34185958e-01 1.69078946e+00
      5.78431368e+00 1.04301071e+00 1.87594616e+00 9.60901260e-01
      1.68292677e+00 5.51020432e+00 1.03457451e+00 1.91268289e+00
      9.84394491e-01 1.53166986e+00 1.18000002e+01 1.01013517e+00
      1.65834928e+00 8.92093837e-01 1.69078946e+00 5.78431368e+00
      1.04301071e+00 1.87594616e+00 9.60901260e-01 1.39524519e+00
      4.61038971e+00 1.03780067e+00 1.55126297e+00 8.34185958e-01
      1.39524519e+00 4.61038971e+00 1.03780067e+00 1.55126297e+00
      8.34185958e-01 1.45541406e+00 1.21428576e+01 1.02094245e+00
      1.60509551e+00 8.41305196e-01 1.40344167e+00 4.82456160e+00
      1.01408446e+00 1.56393456e+00 7.91981220e-01 1.38636363e+00
      2.66037726e+00 1.03791463e+00 1.53787875e+00 8.24988902e-01
      1.38715959e+00 8.09090900e+00 1.03056765e+00 1.52529180e+00
      8.86604488e-01 1.40655100e+00 7.44736862e+00 1.04128444e+00
      1.51059735e+00 8.65018904e-01 1.39113677e+00 2.13953495e+00
      1.01734102e+00 1.51059735e+00 8.29823315e-01 1.37757015e+00
      4.13846159e+00 1.03255808e+00 1.51775706e+00 8.55913103e-01
      1.38636363e+00 2.66037726e+00 1.03791463e+00 1.53787875e+00
      8.24988902e-01 1.38715959e+00 8.09090900e+00 1.03056765e+00
      1.52529180e+00 8.86604488e-01 1.40417457e+00 1.11666670e+01
      1.05523252e+00 1.59439111e+00 9.04478431e-01 1.38636363e+00
      2.66037726e+00 1.03791463e+00 1.53787875e+00 8.24988902e-01
      1.40655100e+00 7.44736862e+00 1.04128444e+00 1.51059735e+00
      8.65018904e-01 1.40417457e+00 1.11666670e+01 1.05523252e+00
      1.59439111e+00 9.04478431e-01 1.43243241e+00 2.48214293e+00
      1.04568529e+00 1.56581032e+00 8.61671209e-01 1.39113677e+00
      2.13953495e+00 1.01734102e+00 1.51059735e+00 8.29823315e-01
      1.40655100e+00 7.44736862e+00 1.04128444e+00 1.51059735e+00
      8.65018904e-01 1.40344167e+00 4.82456160e+00 1.01408446e+00
      1.56393456e+00 7.91981220e-01 1.39312983e+00 1.51666670e+01
      1.04938269e+00 1.57660925e+00 8.93474936e-01 1.39113677e+00
      2.13953495e+00 1.01734102e+00 1.51059735e+00 8.29823315e-01
      1.40344167e+00 4.82456160e+00 1.01408446e+00 1.56393456e+00
      7.91981220e-01 1.38715959e+00 8.09090900e+00 1.03056765e+00
      1.52529180e+00 8.86604488e-01 1.39543724e+00 2.15714288e+00
      1.02857149e+00 1.58311284e+00 8.85052919e-01 1.40344167e+00
      4.82456160e+00 1.01408446e+00 1.56393456e+00 7.91981220e-01
      1.38715959e+00 8.09090900e+00 1.03056765e+00 1.52529180e+00
      8.86604488e-01 1.40354335e+00 8.88888931e+00 1.04390240e+00
      1.54330707e+00 8.55512440e-01 1.40417457e+00 1.11666670e+01
      1.05523252e+00 1.59439111e+00 9.04478431e-01 1.38715959e+00
      8.09090900e+00 1.03056765e+00 1.52529180e+00 8.86604488e-01
      1.39543724e+00 2.15714288e+00 1.02857149e+00 1.58311284e+00
      8.85052919e-01 1.40354335e+00 8.88888931e+00 1.04390240e+00
      1.54330707e+00 8.55512440e-01 1.38715959e+00 8.09090900e+00
      1.03056765e+00 1.52529180e+00 8.86604488e-01 1.39543724e+00
      2.15714288e+00 1.02857149e+00 1.58311284e+00 8.85052919e-01
      1.40655100e+00 7.44736862e+00 1.04128444e+00 1.51059735e+00
      8.65018904e-01 1.40655100e+00 7.44736862e+00 1.04128444e+00
      1.51059735e+00 8.65018904e-01 1.38636363e+00 2.66037726e+00
      1.03791463e+00 1.53787875e+00 8.24988902e-01 1.38636363e+00
      2.66037726e+00 1.03791463e+00 1.53787875e+00 8.24988902e-01
      1.40354335e+00 8.88888931e+00 1.04390240e+00 1.54330707e+00
      8.55512440e-01 1.40655100e+00 7.44736862e+00 1.04128444e+00
      1.51059735e+00 8.65018904e-01 1.40417457e+00 1.11666670e+01
      1.05523252e+00 1.59439111e+00 9.04478431e-01 1.40417457e+00
      1.11666670e+01 1.05523252e+00 1.59439111e+00 9.04478431e-01
      1.39312983e+00 1.51666670e+01 1.04938269e+00 1.57660925e+00
      8.93474936e-01 1.38715959e+00 8.09090900e+00 1.03056765e+00
      1.52529180e+00 8.86604488e-01 1.69306934e+00 1.01007557e+00
      9.66666698e+00 1.85216820e+00 1.15117300e+00 1.63987136e+00
      1.06017196e+00 6.49152565e+00 1.83735704e+00 1.00728536e+00
      1.64935064e+00 1.05509639e+00 6.22222233e+00 1.86510611e+00
      9.81504798e-01 1.69306934e+00 1.01007557e+00 9.66666698e+00
      1.85216820e+00 1.15117300e+00 1.63507104e+00 1.02058828e+00
      7.94915247e+00 1.79598403e+00 1.08409655e+00 1.55162239e+00
      1.00699306e+00 3.08333325e+00 1.72423971e+00 1.10164154e+00
      1.39752257e+00 1.02879083e+00 7.14925385e+00 1.53153157e+00
      1.16122115e+00 1.63507104e+00 1.02058828e+00 7.94915247e+00
      1.79598403e+00 1.08409655e+00 1.38665128e+00 1.01602566e+00
      7.82258081e+00 1.50978136e+00 1.10264730e+00 1.38665128e+00
      1.01602566e+00 7.82258081e+00 1.50978136e+00 1.10264730e+00
      1.64935064e+00 1.05509639e+00 6.22222233e+00 1.86510611e+00
      9.81504798e-01 1.38665128e+00 1.01602566e+00 7.82258081e+00
      1.50978136e+00 1.10264730e+00 1.64935064e+00 1.05509639e+00
      6.22222233e+00 1.86510611e+00 9.81504798e-01 1.64935064e+00
      1.05509639e+00 6.22222233e+00 1.86510611e+00 9.81504798e-01
      1.69306934e+00 1.01007557e+00 9.66666698e+00 1.85216820e+00
      1.15117300e+00 1.54571843e+00 1.02092052e+00 8.64000015e+01
      1.69811320e+00 1.13809824e+00 1.39752257e+00 1.02879083e+00
      7.14925385e+00 1.53153157e+00 1.16122115e+00 1.64935064e+00
      1.05509639e+00 6.22222233e+00 1.86510611e+00 9.81504798e-01
      1.64935064e+00 1.05509639e+00 6.22222233e+00 1.86510611e+00
      9.81504798e-01 1.55162239e+00 1.00699306e+00 3.08333325e+00
      1.72423971e+00 1.10164154e+00 1.67205167e+00 1.00748134e+00
      1.70769234e+01 1.81224012e+00 1.05964065e+00 1.39752257e+00
      1.02879083e+00 7.14925385e+00 1.53153157e+00 1.16122115e+00
      1.54571843e+00 1.02092052e+00 8.64000015e+01 1.69811320e+00
      1.13809824e+00 1.54571843e+00 1.02092052e+00 8.64000015e+01
      1.69811320e+00 1.13809824e+00 1.63987136e+00 1.06017196e+00
      6.49152565e+00 1.83735704e+00 1.00728536e+00 1.55162239e+00
      1.00699306e+00 3.08333325e+00 1.72423971e+00 1.10164154e+00
      1.67205167e+00 1.00748134e+00 1.70769234e+01 1.81224012e+00
      1.05964065e+00 1.38228703e+00 1.02743900e+00 2.36529684e+00
      1.52627265e+00 1.10545444e+00 1.65146577e+00 1.01322746e+00 392.
      1.81457675e+00 1.02936029e+00 1.64935064e+00 1.05509639e+00
      6.22222233e+00 1.86510611e+00 9.81504798e-01 1.38228703e+00
      1.02743900e+00 2.36529684e+00 1.52627265e+00 1.10545444e+00
      1.54571843e+00 1.02092052e+00 8.64000015e+01 1.69811320e+00
      1.13809824e+00 1.55162239e+00 1.00699306e+00 3.08333325e+00
      1.72423971e+00 1.10164154e+00 1.69306934e+00 1.01007557e+00
      9.66666698e+00 1.85216820e+00 1.15117300e+00 1.65146577e+00
      1.01322746e+00 392. 1.81457675e+00 1.02936029e+00 1.63987136e+00
      1.06017196e+00 6.49152565e+00 1.83735704e+00 1.00728536e+00
      1.63987136e+00 1.06017196e+00 6.49152565e+00 1.83735704e+00
      1.00728536e+00 1.54571843e+00 1.02092052e+00 8.64000015e+01
      1.69811320e+00 1.13809824e+00 1.55162239e+00 1.00699306e+00
      3.08333325e+00 1.72423971e+00 1.10164154e+00 1.64935064e+00
      1.05509639e+00 6.22222233e+00 1.86510611e+00 9.81504798e-01
      1.63987136e+00 1.06017196e+00 6.49152565e+00 1.83735704e+00
      1.00728536e+00 1.39752257e+00 1.02879083e+00 7.14925385e+00
      1.53153157e+00 1.16122115e+00 1.67205167e+00 1.00748134e+00
      1.70769234e+01 1.81224012e+00 1.05964065e+00 1.39752257e+00
      1.02879083e+00 7.14925385e+00 1.53153157e+00 1.16122115e+00
      1.67205167e+00 1.00748134e+00 1.70769234e+01 1.81224012e+00
      1.05964065e+00 1.54571843e+00 1.02092052e+00 8.64000015e+01
      1.69811320e+00 1.13809824e+00 1.63507104e+00 1.02058828e+00
      7.94915247e+00 1.79598403e+00 1.08409655e+00 1.38665128e+00
      1.01602566e+00 7.82258081e+00 1.50978136e+00 1.10264730e+00
      1.63507104e+00 1.02058828e+00 7.94915247e+00 1.79598403e+00
      1.08409655e+00 1.69306934e+00 1.01007557e+00 9.66666698e+00
      1.85216820e+00 1.15117300e+00 1.67205167e+00 1.00748134e+00
      1.70769234e+01 1.81224012e+00 1.05964065e+00 1.55162239e+00
      1.00699306e+00 3.08333325e+00 1.72423971e+00 1.10164154e+00
      1.67205167e+00 1.00748134e+00 1.70769234e+01 1.81224012e+00
      1.05964065e+00 1.38665128e+00 1.01602566e+00 7.82258081e+00
      1.50978136e+00 1.10264730e+00 1.65146577e+00 1.01322746e+00 392.
      1.81457675e+00 1.02936029e+00 1.55162239e+00 1.00699306e+00
      3.08333325e+00 1.72423971e+00 1.10164154e+00 1.63987136e+00
      1.06017196e+00 6.49152565e+00 1.83735704e+00 1.00728536e+00
      1.63507104e+00 1.02058828e+00 7.94915247e+00 1.79598403e+00
      1.08409655e+00 1.63987136e+00 1.06017196e+00 6.49152565e+00
      1.83735704e+00 1.00728536e+00 1.63507104e+00 1.02058828e+00
      7.94915247e+00 1.79598403e+00 1.08409655e+00 1.38502669e+00
      1.00740743e+00 2.33160615e+00 1.48334372e+00 1.09452748e+00
      1.41232872e+00 1.02551019e+00 1.62916660e+01 1.48514986e+00
      1.11575603e+00 1.31279624e+00 1.01923072e+00 1.93430662e+00
      1.36966825e+00 1.13317811e+00 1.39892185e+00 1.02508962e+00
      9.23255825e+00 1.47662210e+00 1.13210964e+00 1.30532539e+00
      1.01538467e+00 1.90287769e+00 1.36804736e+00 1.09984910e+00
      1.40419948e+00 1.01818180e+00 2.27102804e+00 1.51706040e+00
      1.07903719e+00 1.31279624e+00 1.01923072e+00 1.93430662e+00
      1.36966825e+00 1.13317811e+00 1.39892185e+00 1.02508962e+00
      9.23255825e+00 1.47662210e+00 1.13210964e+00 1.34339619e+00
      1.02083337e+00 1.94339621e+00 1.45371616e+00 1.10252142e+00
      1.31279624e+00 1.01923072e+00 1.93430662e+00 1.36966825e+00
      1.13317811e+00 1.31660688e+00 1.03300333e+00 1.91666663e+00
      1.38112307e+00 1.10293913e+00 1.30532539e+00 1.01538467e+00
      1.90287769e+00 1.36804736e+00 1.09984910e+00 1.39094651e+00
      1.02412868e+00 2.35078526e+00 1.51815772e+00 1.10843492e+00
      1.37940025e+00 1.03010750e+00 5.27848101e+00 1.48943961e+00
      1.15295899e+00 1.38502669e+00 1.00740743e+00 2.33160615e+00
      1.48334372e+00 1.09452748e+00 1.37940025e+00 1.03010750e+00
      5.27848101e+00 1.48943961e+00 1.15295899e+00 1.39094651e+00
      1.02412868e+00 2.35078526e+00 1.51815772e+00 1.10843492e+00
      1.39094651e+00 1.02412868e+00 2.35078526e+00 1.51815772e+00
      1.10843492e+00 1.34339619e+00 1.02083337e+00 1.94339621e+00
      1.45371616e+00 1.10252142e+00 1.30532539e+00 1.01538467e+00
      1.90287769e+00 1.36804736e+00 1.09984910e+00 1.39892185e+00
      1.02508962e+00 9.23255825e+00 1.47662210e+00 1.13210964e+00
      1.31660688e+00 1.03300333e+00 1.91666663e+00 1.38112307e+00
      1.10293913e+00 1.34339619e+00 1.02083337e+00 1.94339621e+00
      1.45371616e+00 1.10252142e+00 1.34339619e+00 1.02083337e+00
      1.94339621e+00 1.45371616e+00 1.10252142e+00 1.30532539e+00
      1.01538467e+00 1.90287769e+00 1.36804736e+00 1.09984910e+00
      1.37940025e+00 1.03010750e+00 5.27848101e+00 1.48943961e+00
      1.15295899e+00 1.31660688e+00 1.03300333e+00 1.91666663e+00
      1.38112307e+00 1.10293913e+00 1.38502669e+00 1.00740743e+00
      2.33160615e+00 1.48334372e+00 1.09452748e+00 1.31279624e+00
      1.01923072e+00 1.93430662e+00 1.36966825e+00 1.13317811e+00
      1.37940025e+00 1.03010750e+00 5.27848101e+00 1.48943961e+00
      1.15295899e+00 1.30532539e+00 1.01538467e+00 1.90287769e+00
      1.36804736e+00 1.09984910e+00 1.39729726e+00 1.01822913e+00
      2.48863626e+00 1.50240099e+00 1.16791761e+00 1.31279624e+00
      1.01923072e+00 1.93430662e+00 1.36966825e+00 1.13317811e+00
      1.31279624e+00 1.01923072e+00 1.93430662e+00 1.36966825e+00
      1.13317811e+00 1.41232872e+00 1.02551019e+00 1.62916660e+01
      1.48514986e+00 1.11575603e+00 1.41232872e+00 1.02551019e+00
      1.62916660e+01 1.48514986e+00 1.11575603e+00 1.31660688e+00
      1.03300333e+00 1.91666663e+00 1.38112307e+00 1.10293913e+00
      1.30532539e+00 1.01538467e+00 1.90287769e+00 1.36804736e+00
      1.09984910e+00 1.37940025e+00 1.03010750e+00 5.27848101e+00
      1.48943961e+00 1.15295899e+00 1.38502669e+00 1.00740743e+00
      2.33160615e+00 1.48334372e+00 1.09452748e+00 1.40419948e+00
      1.01818180e+00 2.27102804e+00 1.51706040e+00 1.07903719e+00
      1.39729726e+00 1.01822913e+00 2.48863626e+00 1.50240099e+00
      1.16791761e+00 1.40419948e+00 1.01818180e+00 2.27102804e+00
      1.51706040e+00 1.07903719e+00 1.39094651e+00 1.02412868e+00
      2.35078526e+00 1.51815772e+00 1.10843492e+00 1.41232872e+00
      1.02551019e+00 1.62916660e+01 1.48514986e+00 1.11575603e+00
      1.31660688e+00 1.03300333e+00 1.91666663e+00 1.38112307e+00
      1.10293913e+00 1.30532539e+00 1.01538467e+00 1.90287769e+00
      1.36804736e+00 1.09984910e+00 1.40419948e+00 1.01818180e+00
      2.27102804e+00 1.51706040e+00 1.07903719e+00 1.40419948e+00
      1.01818180e+00 2.27102804e+00 1.51706040e+00 1.07903719e+00
      1.39892185e+00 1.02508962e+00 9.23255825e+00 1.47662210e+00
      1.13210964e+00 1.40419948e+00 1.01818180e+00 2.27102804e+00
      1.51706040e+00 1.07903719e+00 1.34339619e+00 1.02083337e+00
      1.94339621e+00 1.45371616e+00 1.10252142e+00 1.34339619e+00
      1.02083337e+00 1.94339621e+00 1.45371616e+00 1.10252142e+00
      1.37940025e+00 1.03010750e+00 5.27848101e+00 1.48943961e+00
      1.15295899e+00 1.37940025e+00 1.03010750e+00 5.27848101e+00
      1.48943961e+00 1.15295899e+00 1.31660688e+00 1.03300333e+00
      1.91666663e+00 1.38112307e+00 1.10293913e+00 1.38502669e+00
      1.00740743e+00 2.33160615e+00 1.48334372e+00 1.09452748e+00
      1.34339619e+00 1.02083337e+00 1.94339621e+00 1.45371616e+00
      1.10252142e+00 1.39729726e+00 1.01822913e+00 2.48863626e+00
      1.50240099e+00 1.16791761e+00 1.39094651e+00 1.02412868e+00
      2.35078526e+00 1.51815772e+00 1.10843492e+00 1.36222219e+00
      1.01895738e+00 6.68571424e+00 1.50222218e+00 1.06436503e+00
      1.37813210e+00 1.04191613e+00 5.47727251e+00 1.53986335e+00
      8.77773345e-01 1.37813210e+00 1.04191613e+00 5.47727251e+00
      1.53986335e+00 8.77773345e-01 1.43418014e+00 1.01428568e+00
      4.58695650e+00 1.59120810e+00 1.15943527e+00 1.41324198e+00
      1.01858735e+00 4.87500000e+00 1.58817196e+00 1.21606731e+00
      1.34862387e+00 1.01265824e+00 4.85416651e+00 1.43119264e+00
      1.11869085e+00 1.36222219e+00 1.01895738e+00 6.68571424e+00
      1.50222218e+00 1.06436503e+00 1.36547089e+00 1.01570678e+00
      5.84848499e+00 1.51569510e+00 1.03447187e+00 1.37813210e+00
      1.04191613e+00 5.47727251e+00 1.53986335e+00 8.77773345e-01
      1.36711717e+00 1.03773582e+00 6.90000010e+00 1.52252257e+00
      1.08090365e+00 1.34862387e+00 1.01265824e+00 4.85416651e+00
      1.43119264e+00 1.11869085e+00 1.37813210e+00 1.04191613e+00
      5.47727251e+00 1.53986335e+00 8.77773345e-01 1.43418014e+00
      1.01428568e+00 4.58695650e+00 1.59120810e+00 1.15943527e+00
      1.41324198e+00 1.01858735e+00 4.87500000e+00 1.58817196e+00
      1.21606731e+00 1.36222219e+00 1.01895738e+00 6.68571424e+00
      1.50222218e+00 1.06436503e+00 1.43418014e+00 1.01428568e+00
      4.58695650e+00 1.59120810e+00 1.15943527e+00 1.37813210e+00
      1.04191613e+00 5.47727251e+00 1.53986335e+00 8.77773345e-01
      1.36222219e+00 1.01895738e+00 6.68571424e+00 1.50222218e+00
      1.06436503e+00 1.37813210e+00 1.04191613e+00 5.47727251e+00
      1.53986335e+00 8.77773345e-01 1.37813210e+00 1.04191613e+00
      5.47727251e+00 1.53986335e+00 8.77773345e-01 1.43418014e+00
      1.01428568e+00 4.58695650e+00 1.59120810e+00 1.15943527e+00
      1.36222219e+00 1.01895738e+00 6.68571424e+00 1.50222218e+00
      1.06436503e+00 1.38215101e+00 1.03515625e+00 6.35135126e+00
      1.54691076e+00 1.12607777e+00 1.36711717e+00 1.03773582e+00
      6.90000010e+00 1.52252257e+00 1.08090365e+00 1.36711717e+00
      1.03773582e+00 6.90000010e+00 1.52252257e+00 1.08090365e+00
      1.38747096e+00 1.01568627e+00 1.95394742e+00 1.56844544e+00
      1.00268626e+00 1.43418014e+00 1.01428568e+00 4.58695650e+00
      1.59120810e+00 1.15943527e+00 1.41324198e+00 1.01858735e+00
      4.87500000e+00 1.58817196e+00 1.21606731e+00 1.36222219e+00
      1.01895738e+00 6.68571424e+00 1.50222218e+00 1.06436503e+00
      1.38215101e+00 1.03515625e+00 6.35135126e+00 1.54691076e+00
      1.12607777e+00 1.38747096e+00 1.01568627e+00 1.95394742e+00
      1.56844544e+00 1.00268626e+00 1.41324198e+00 1.01858735e+00
      4.87500000e+00 1.58817196e+00 1.21606731e+00 1.43418014e+00
      1.01428568e+00 4.58695650e+00 1.59120810e+00 1.15943527e+00
      1.43418014e+00 1.01428568e+00 4.58695650e+00 1.59120810e+00
      1.15943527e+00 1.38215101e+00 1.03515625e+00 6.35135126e+00
      1.54691076e+00 1.12607777e+00 1.38215101e+00 1.03515625e+00
      6.35135126e+00 1.54691076e+00 1.12607777e+00 1.38747096e+00
      1.01568627e+00 1.95394742e+00 1.56844544e+00 1.00268626e+00
      1.36711717e+00 1.03773582e+00 6.90000010e+00 1.52252257e+00
      1.08090365e+00 1.41043079e+00 1.01960790e+00 4.58333349e+00
      1.57982647e+00 1.18434656e+00 1.34862387e+00 1.01265824e+00
      4.85416651e+00 1.43119264e+00 1.11869085e+00 1.03365386e+00
      1.03777778e+00 1.03508770e+00 1.15384614e+00 9.39028323e-01
      1.04976082e+00 1.02816904e+00 1.03571427e+00 1.16814125e+00
      9.44715559e-01 1.01315784e+00 1.03883493e+00 1.04864860e+00
      1.10526311e+00 1. 1.03262961e+00 1.03508770e+00 1.03648067e+00
      1.15163147e+00 9.77515519e-01 1.01315784e+00 1.03883493e+00
      1.04864860e+00 1.10526311e+00 1. 1.04444444e+00 1.03076923e+00
      1.03534305e+00 1.17391992e+00 9.16846097e-01 1.01315784e+00
      1.03883493e+00 1.04864860e+00 1.10526311e+00 1. 1.02208197e+00
      1.05343509e+00 1.05809128e+00 1.12618291e+00 1.01992810e+00
      1.01286769e+00 1.03821659e+00 1.04081631e+00 1.10294116e+00
      9.88345027e-01 1.01315784e+00 1.03883493e+00 1.04864860e+00
      1.10526311e+00 1. 1.01315784e+00 1.03883493e+00 1.04864860e+00
      1.10526311e+00 1. 1.02208197e+00 1.05343509e+00 1.05809128e+00
      1.12618291e+00 1.01992810e+00 1.04339445e+00 1.03198290e+00
      1.03076923e+00 1.17335081e+00 9.54658985e-01 1.04976082e+00
      1.02816904e+00 1.03571427e+00 1.16814125e+00 9.44715559e-01
      1.04444444e+00 1.03076923e+00 1.03534305e+00 1.17391992e+00
      9.16846097e-01 1.01315784e+00 1.03883493e+00 1.04864860e+00
      1.10526311e+00 1. 1.02208197e+00 1.05343509e+00 1.05809128e+00
      1.12618291e+00 1.01992810e+00 1.03262961e+00 1.03508770e+00
      1.03648067e+00 1.15163147e+00 9.77515519e-01 1.01286769e+00
      1.03821659e+00 1.04081631e+00 1.10294116e+00 9.88345027e-01
      1.02208197e+00 1.05343509e+00 1.05809128e+00 1.12618291e+00
      1.01992810e+00 1.04976082e+00 1.02816904e+00 1.03571427e+00
      1.16814125e+00 9.44715559e-01 1.01381218e+00 1.04830921e+00
      1.03472221e+00 1.10497236e+00 9.76673782e-01 1.04418826e+00
      1.06097555e+00 1.04799998e+00 1.17365670e+00 9.54658985e-01
      1.01381218e+00 1.04830921e+00 1.03472221e+00 1.10497236e+00
      9.76673782e-01 1.03262961e+00 1.03508770e+00 1.03648067e+00
      1.15163147e+00 9.77515519e-01 1.02208197e+00 1.05343509e+00
      1.05809128e+00 1.12618291e+00 1.01992810e+00 1.03365386e+00
      1.03777778e+00 1.03508770e+00 1.15384614e+00 9.39028323e-01
      1.01315784e+00 1.03883493e+00 1.04864860e+00 1.10526311e+00 1.
      1.01315784e+00 1.03883493e+00 1.04864860e+00 1.10526311e+00 1.
      1.04418826e+00 1.06097555e+00 1.04799998e+00 1.17365670e+00
      9.54658985e-01 1.03365386e+00 1.03777778e+00 1.03508770e+00
      1.15384614e+00 9.39028323e-01 1.04444444e+00 1.03076923e+00
      1.03534305e+00 1.17391992e+00 9.16846097e-01 1.01315784e+00
      1.03883493e+00 1.04864860e+00 1.10526311e+00 1. 1.04339445e+00
      1.03198290e+00 1.03076923e+00 1.17335081e+00 9.54658985e-01
      1.01315784e+00 1.03883493e+00 1.04864860e+00 1.10526311e+00 1.
      1.01315784e+00 1.03883493e+00 1.04864860e+00 1.10526311e+00 1.
      1.04444444e+00 1.03076923e+00 1.03534305e+00 1.17391992e+00
      9.16846097e-01 1.01381218e+00 1.04830921e+00 1.03472221e+00
      1.10497236e+00 9.76673782e-01 1.01315784e+00 1.03883493e+00
      1.04864860e+00 1.10526311e+00 1. 1.04976082e+00 1.02816904e+00
      1.03571427e+00 1.16814125e+00 9.44715559e-01 1.03365386e+00
      1.03777778e+00 1.03508770e+00 1.15384614e+00 9.39028323e-01
      1.01286769e+00 1.03821659e+00 1.04081631e+00 1.10294116e+00
      9.88345027e-01 1.03262961e+00 1.03508770e+00 1.03648067e+00
      1.15163147e+00 9.77515519e-01 1.01286769e+00 1.03821659e+00
      1.04081631e+00 1.10294116e+00 9.88345027e-01 1.04976082e+00
      1.02816904e+00 1.03571427e+00 1.16814125e+00 9.44715559e-01
      1.04444444e+00 1.03076923e+00 1.03534305e+00 1.17391992e+00
      9.16846097e-01 1.04976082e+00 1.02816904e+00 1.03571427e+00
      1.16814125e+00 9.44715559e-01 1.04418826e+00 1.06097555e+00
      1.04799998e+00 1.17365670e+00 9.54658985e-01 1.04444444e+00
      1.03076923e+00 1.03534305e+00 1.17391992e+00 9.16846097e-01
      1.04339445e+00 1.03198290e+00 1.03076923e+00 1.17335081e+00
      9.54658985e-01 1.04976082e+00 1.02816904e+00 1.03571427e+00
      1.16814125e+00 9.44715559e-01 1.03262961e+00 1.03508770e+00
      1.03648067e+00 1.15163147e+00 9.77515519e-01 1.01479745e+00
      1.04455447e+00 1.05050504e+00 1.11214948e+00 1. 1.02208197e+00
      1.05343509e+00 1.05809128e+00 1.12618291e+00 1.01992810e+00
      1.01315784e+00 1.03883493e+00 1.04864860e+00 1.10526311e+00 1.
      1.01315784e+00 1.03883493e+00 1.04864860e+00 1.10526311e+00 1.
      1.01315784e+00 1.03883493e+00 1.04864860e+00 1.10526311e+00 1.
      1.01381218e+00 1.04830921e+00 1.03472221e+00 1.10497236e+00
      9.76673782e-01 1.04976082e+00 1.02816904e+00 1.03571427e+00
      1.16814125e+00 9.44715559e-01 1.03262961e+00 1.03508770e+00
      1.03648067e+00 1.15163147e+00 9.77515519e-01 1.03752530e+00
      1.02105260e+00 1.01993358e+00 1.14311016e+00 1.00088286e+00
      1.01075268e+00 1.04477608e+00 1.04672897e+00 1.09677422e+00
      9.94177580e-01 1.03317070e+00 1.04418600e+00 1.00623047e+00
      1.15902436e+00 9.62483287e-01 1.03578734e+00 1.02400005e+00
      1.02120137e+00 1.15256953e+00 1.01500952e+00 1.03752530e+00
      1.02105260e+00 1.01993358e+00 1.14311016e+00 1.00088286e+00
      1.02691507e+00 1.03409088e+00 1.03005469e+00 1.12629402e+00
      9.72396314e-01 1.01450515e+00 1.03636360e+00 1.07236838e+00
      1.10238910e+00 9.53340471e-01 1.01636517e+00 1.03212857e+00
      1.07236838e+00 1.11283374e+00 9.68285441e-01 1.04958677e+00
      1.04098356e+00 1.04213488e+00 1.17312849e+00 9.89873111e-01
      1.04639173e+00 1.03401363e+00 1.04117644e+00 1.17687905e+00
      9.89873111e-01 1.01636517e+00 1.03212857e+00 1.07236838e+00
      1.11283374e+00 9.68285441e-01 1.04958677e+00 1.04098356e+00
      1.04213488e+00 1.17312849e+00 9.89873111e-01 1.03317070e+00
      1.04418600e+00 1.00623047e+00 1.15902436e+00 9.62483287e-01
      1.04639173e+00 1.03401363e+00 1.04117644e+00 1.17687905e+00
      9.89873111e-01 1.01636517e+00 1.03212857e+00 1.07236838e+00
      1.11283374e+00 9.68285441e-01 1.04958677e+00 1.04098356e+00
      1.04213488e+00 1.17312849e+00 9.89873111e-01 1.01450515e+00
      1.03636360e+00 1.07236838e+00 1.10238910e+00 9.53340471e-01
      1.01450515e+00 1.03636360e+00 1.07236838e+00 1.10238910e+00
      9.53340471e-01 1.03752530e+00 1.02105260e+00 1.01993358e+00
      1.14311016e+00 1.00088286e+00 1.03317070e+00 1.04418600e+00
      1.00623047e+00 1.15902436e+00 9.62483287e-01 1.01636517e+00
      1.03212857e+00 1.07236838e+00 1.11283374e+00 9.68285441e-01
      1.04610658e+00 1.03680980e+00 1.02105260e+00 1.14536142e+00
      9.72122908e-01 1.01450515e+00 1.03636360e+00 1.07236838e+00
      1.10238910e+00 9.53340471e-01 1.03578734e+00 1.02400005e+00
      1.02120137e+00 1.15256953e+00 1.01500952e+00 1.04958677e+00
      1.04098356e+00 1.04213488e+00 1.17312849e+00 9.89873111e-01
      1.01075268e+00 1.04477608e+00 1.04672897e+00 1.09677422e+00
      9.94177580e-01 1.01450515e+00 1.03636360e+00 1.07236838e+00
      1.10238910e+00 9.53340471e-01 1.03578734e+00 1.02400005e+00
      1.02120137e+00 1.15256953e+00 1.01500952e+00 1.03578734e+00
      1.02400005e+00 1.02120137e+00 1.15256953e+00 1.01500952e+00
      1.03317070e+00 1.04418600e+00 1.00623047e+00 1.15902436e+00
      9.62483287e-01 1.03578734e+00 1.02400005e+00 1.02120137e+00
      1.15256953e+00 1.01500952e+00 1.04639173e+00 1.03401363e+00
      1.04117644e+00 1.17687905e+00 9.89873111e-01 1.01075268e+00
      1.04477608e+00 1.04672897e+00 1.09677422e+00 9.94177580e-01
      1.00767922e+00 1.02666664e+00 1.02994013e+00 1.06996584e+00 1.
      1.04639173e+00 1.03401363e+00 1.04117644e+00 1.17687905e+00
      9.89873111e-01 1.01450515e+00 1.03636360e+00 1.07236838e+00
      1.10238910e+00 9.53340471e-01 1.04639173e+00 1.03401363e+00
      1.04117644e+00 1.17687905e+00 9.89873111e-01 1.03317070e+00
      1.04418600e+00 1.00623047e+00 1.15902436e+00 9.62483287e-01
      1.04958677e+00 1.04098356e+00 1.04213488e+00 1.17312849e+00
      9.89873111e-01 1.01450515e+00 1.03636360e+00 1.07236838e+00
      1.10238910e+00 9.53340471e-01 1.00767922e+00 1.02666664e+00
      1.02994013e+00 1.06996584e+00 1. 1.01075268e+00 1.04477608e+00
      1.04672897e+00 1.09677422e+00 9.94177580e-01 1.04639173e+00
      1.03401363e+00 1.04117644e+00 1.17687905e+00 9.89873111e-01
      1.00767922e+00 1.02666664e+00 1.02994013e+00 1.06996584e+00 1.
      1.03578734e+00 1.02400005e+00 1.02120137e+00 1.15256953e+00
      1.01500952e+00 1.02691507e+00 1.03409088e+00 1.03005469e+00
      1.12629402e+00 9.72396314e-01 1.04958677e+00 1.04098356e+00
      1.04213488e+00 1.17312849e+00 9.89873111e-01 1.04639173e+00
      1.03401363e+00 1.04117644e+00 1.17687905e+00 9.89873111e-01
      1.04610658e+00 1.03680980e+00 1.02105260e+00 1.14536142e+00
      9.72122908e-01 1.01636517e+00 1.03212857e+00 1.07236838e+00
      1.11283374e+00 9.68285441e-01 1.03317070e+00 1.04418600e+00
      1.00623047e+00 1.15902436e+00 9.62483287e-01 1.03578734e+00
      1.02400005e+00 1.02120137e+00 1.15256953e+00 1.01500952e+00
      1.00767922e+00 1.02666664e+00 1.02994013e+00 1.06996584e+00 1.
      1.03752530e+00 1.02105260e+00 1.01993358e+00 1.14311016e+00
      1.00088286e+00 1.01075268e+00 1.04477608e+00 1.04672897e+00
      1.09677422e+00 9.94177580e-01 1.02691507e+00 1.03409088e+00
      1.03005469e+00 1.12629402e+00 9.72396314e-01 1.01636517e+00
      1.03212857e+00 1.07236838e+00 1.11283374e+00 9.68285441e-01
      1.04958677e+00 1.04098356e+00 1.04213488e+00 1.17312849e+00
      9.89873111e-01 1.02691507e+00 1.03409088e+00 1.03005469e+00
      1.12629402e+00 9.72396314e-01 1.04958677e+00 1.04098356e+00
      1.04213488e+00 1.17312849e+00 9.89873111e-01 1.04474509e+00
      1.05504584e+00 1.05303025e+00 1.10902655e+00 9.93884683e-01
      1.01232028e+00 1. 1.07843137e+00 1.03490758e+00 9.99252856e-01
      1.06928647e+00 1.07560134e+00 1.04807687e+00 1.11844742e+00
      9.44261968e-01 1.00505054e+00 1.00403225e+00 1.00706708e+00
      1.01818180e+00 9.75107968e-01 1.00505054e+00 1.00403225e+00
      1.00706708e+00 1.01818180e+00 9.75107968e-01 1.00505054e+00
      1.00403225e+00 1.00706708e+00 1.01818180e+00 9.75107968e-01
      1.05041158e+00 1.03896105e+00 1.03932583e+00 1.10023773e+00
      1.01179600e+00 1.00607288e+00 1.02631581e+00 1.04545450e+00
      1.02024293e+00 9.75107968e-01 1.05041158e+00 1.03896105e+00
      1.03932583e+00 1.10023773e+00 1.01179600e+00 1.01658034e+00
      1.05882359e+00 1.00335574e+00 1.04455960e+00 9.83503401e-01
      1.01232028e+00 1. 1.07843137e+00 1.03490758e+00 9.99252856e-01
      1.00607288e+00 1.02631581e+00 1.04545450e+00 1.02024293e+00
      9.75107968e-01 1.04474509e+00 1.05504584e+00 1.05303025e+00
      1.10902655e+00 9.93884683e-01 1.04474509e+00 1.05504584e+00
      1.05303025e+00 1.10902655e+00 9.93884683e-01 1.01232028e+00 1.
      1.07843137e+00 1.03490758e+00 9.99252856e-01 1.04149377e+00
      1.00505054e+00 1.02203858e+00 1.10088003e+00 9.97876048e-01
      1.04455960e+00 1.04472840e+00 1.01461983e+00 1.09909081e+00
      9.94625390e-01 1.05492222e+00 1.03984058e+00 1.04658389e+00
      1.10528386e+00 1.00711393e+00 1.04474509e+00 1.05504584e+00
      1.05303025e+00 1.10902655e+00 9.93884683e-01 1.05492222e+00
      1.03984058e+00 1.04658389e+00 1.10528386e+00 1.00711393e+00
      1.00505054e+00 1.00403225e+00 1.00706708e+00 1.01818180e+00
      9.75107968e-01 1.01232028e+00 1. 1.07843137e+00 1.03490758e+00
      9.99252856e-01 1.00505054e+00 1.00403225e+00 1.00706708e+00
      1.01818180e+00 9.75107968e-01 1.04149377e+00 1.00505054e+00
      1.02203858e+00 1.10088003e+00 9.97876048e-01 1.05821204e+00
      1.00892854e+00 1.05999994e+00 1.11200225e+00 9.73713577e-01
      1.00505054e+00 1.00403225e+00 1.00706708e+00 1.01818180e+00
      9.75107968e-01 1.05821204e+00 1.00892854e+00 1.05999994e+00
      1.11200225e+00 9.73713577e-01 1.05041158e+00 1.03896105e+00
      1.03932583e+00 1.10023773e+00 1.01179600e+00 1.05821204e+00
      1.00892854e+00 1.05999994e+00 1.11200225e+00 9.73713577e-01
      1.01658034e+00 1.05882359e+00 1.00335574e+00 1.04455960e+00
      9.83503401e-01 1.04474509e+00 1.05504584e+00 1.05303025e+00
      1.10902655e+00 9.93884683e-01 1.00505054e+00 1.00403225e+00
      1.00706708e+00 1.01818180e+00 9.75107968e-01 1.06928647e+00
      1.07560134e+00 1.04807687e+00 1.11844742e+00 9.44261968e-01
      1.04474509e+00 1.05504584e+00 1.05303025e+00 1.10902655e+00
      9.93884683e-01 1.05821204e+00 1.00892854e+00 1.05999994e+00
      1.11200225e+00 9.73713577e-01 1.01232028e+00 1. 1.07843137e+00
      1.03490758e+00 9.99252856e-01 1.04149377e+00 1.00505054e+00
      1.02203858e+00 1.10088003e+00 9.97876048e-01 1.05492222e+00
      1.03984058e+00 1.04658389e+00 1.10528386e+00 1.00711393e+00
      1.04149377e+00 1.00505054e+00 1.02203858e+00 1.10088003e+00
      9.97876048e-01 1.04474509e+00 1.05504584e+00 1.05303025e+00
      1.10902655e+00 9.93884683e-01 1.24000001e+00 1.06306303e+00
      1.42723000e+00 1.45599997e+00 1.00511730e+00 1.27180529e+00 1.
      1.33752620e+00 1.54158211e+00 1.02806532e+00 1.31089747e+00
      1.08749998e+00 1.40092170e+00 1.55947852e+00 8.92623901e-01
      1.24923706e+00 1.07643306e+00 1.39047623e+00 1.46897256e+00
      9.92597163e-01 1.24000001e+00 1.06306303e+00 1.42723000e+00
      1.45599997e+00 1.00511730e+00 1.24923706e+00 1.07643306e+00
      1.39047623e+00 1.46897256e+00 9.92597163e-01 1.24923706e+00
      1.07643306e+00 1.39047623e+00 1.46897256e+00 9.92597163e-01
      1.29633617e+00 1.03333330e+00 1.66803277e+00 1.55603445e+00
      9.31491554e-01 1.24000001e+00 1.06306303e+00 1.42723000e+00
      1.45599997e+00 1.00511730e+00 1.24000001e+00 1.06306303e+00
      1.42723000e+00 1.45599997e+00 1.00511730e+00 1.29633617e+00
      1.03333330e+00 1.66803277e+00 1.55603445e+00 9.31491554e-01
      1.32686079e+00 1.06696427e+00 1.47201943e+00 1.55771303e+00
      9.02266622e-01 1.29726779e+00 1.10000002e+00 1.59803927e+00
      1.49508202e+00 1.08673227e+00 1.31089747e+00 1.08749998e+00
      1.40092170e+00 1.55947852e+00 8.92623901e-01 1.32686079e+00
      1.06696427e+00 1.47201943e+00 1.55771303e+00 9.02266622e-01
      1.21981978e+00 1.06306303e+00 1.46009386e+00 1.40540540e+00
      1.08245015e+00 1.31612909e+00 1.06498194e+00 1.66071427e+00
      1.57859993e+00 9.85718548e-01 1.29633617e+00 1.03333330e+00
      1.66803277e+00 1.55603445e+00 9.31491554e-01 1.21981978e+00
      1.06306303e+00 1.46009386e+00 1.40540540e+00 1.08245015e+00
      1.24923706e+00 1.07643306e+00 1.39047623e+00 1.46897256e+00
      9.92597163e-01 1.29633617e+00 1.03333330e+00 1.66803277e+00
      1.55603445e+00 9.31491554e-01 1.33116174e+00 1.08056867e+00
      1.62882102e+00 1.58723855e+00 1.03390765e+00 1.29633617e+00
      1.03333330e+00 1.66803277e+00 1.55603445e+00 9.31491554e-01
      1.24000001e+00 1.06306303e+00 1.42723000e+00 1.45599997e+00
      1.00511730e+00 1.21981978e+00 1.06306303e+00 1.46009386e+00
      1.40540540e+00 1.08245015e+00 1.31089747e+00 1.08749998e+00
      1.40092170e+00 1.55947852e+00 8.92623901e-01 1.29726779e+00
      1.10000002e+00 1.59803927e+00 1.49508202e+00 1.08673227e+00
      1.24923706e+00 1.07643306e+00 1.39047623e+00 1.46897256e+00
      9.92597163e-01 1.24000001e+00 1.06306303e+00 1.42723000e+00
      1.45599997e+00 1.00511730e+00 1.24923706e+00 1.07643306e+00
      1.39047623e+00 1.46897256e+00 9.92597163e-01 1.29726779e+00
      1.10000002e+00 1.59803927e+00 1.49508202e+00 1.08673227e+00
      1.29633617e+00 1.03333330e+00 1.66803277e+00 1.55603445e+00
      9.31491554e-01 1.27497625e+00 1.06909096e+00 1.70807457e+00
      1.51855373e+00 1.00562310e+00 1.21981978e+00 1.06306303e+00
      1.46009386e+00 1.40540540e+00 1.08245015e+00 1.24000001e+00
      1.06306303e+00 1.42723000e+00 1.45599997e+00 1.00511730e+00
      1.27497625e+00 1.06909096e+00 1.70807457e+00 1.51855373e+00
      1.00562310e+00 1.31612909e+00 1.06498194e+00 1.66071427e+00
      1.57859993e+00 9.85718548e-01 1.24923706e+00 1.07643306e+00
      1.39047623e+00 1.46897256e+00 9.92597163e-01 1.32686079e+00
      1.06696427e+00 1.47201943e+00 1.55771303e+00 9.02266622e-01
      1.24000001e+00 1.06306303e+00 1.42723000e+00 1.45599997e+00
      1.00511730e+00 1.29726779e+00 1.10000002e+00 1.59803927e+00
      1.49508202e+00 1.08673227e+00 1.29633617e+00 1.03333330e+00
      1.66803277e+00 1.55603445e+00 9.31491554e-01 1.29726779e+00
      1.10000002e+00 1.59803927e+00 1.49508202e+00 1.08673227e+00
      1.24923706e+00 1.07643306e+00 1.39047623e+00 1.46897256e+00
      9.92597163e-01 1.21981978e+00 1.06306303e+00 1.46009386e+00
      1.40540540e+00 1.08245015e+00 1.29726779e+00 1.10000002e+00
      1.59803927e+00 1.49508202e+00 1.08673227e+00 1.32686079e+00
      1.06696427e+00 1.47201943e+00 1.55771303e+00 9.02266622e-01
      1.24000001e+00 1.06306303e+00 1.42723000e+00 1.45599997e+00
      1.00511730e+00 1.27497625e+00 1.06909096e+00 1.70807457e+00
      1.51855373e+00 1.00562310e+00 1.27180529e+00 1. 1.33752620e+00
      1.54158211e+00 1.02806532e+00 1.32686079e+00 1.06696427e+00
      1.47201943e+00 1.55771303e+00 9.02266622e-01 1.31612909e+00
      1.06498194e+00 1.66071427e+00 1.57859993e+00 9.85718548e-01
      1.31089747e+00 1.08749998e+00 1.40092170e+00 1.55947852e+00
      8.92623901e-01 1.24000001e+00 1.06306303e+00 1.42723000e+00
      1.45599997e+00 1.00511730e+00 1.24923706e+00 1.07643306e+00
      1.39047623e+00 1.46897256e+00 9.92597163e-01 1.29633617e+00
      1.03333330e+00 1.66803277e+00 1.55603445e+00 9.31491554e-01
      1.24923706e+00 1.07643306e+00 1.39047623e+00 1.46897256e+00
      9.92597163e-01 1.27497625e+00 1.06909096e+00 1.70807457e+00
      1.51855373e+00 1.00562310e+00 1.27497625e+00 1.06909096e+00
      1.70807457e+00 1.51855373e+00 1.00562310e+00 1.33116174e+00
      1.08056867e+00 1.62882102e+00 1.58723855e+00 1.03390765e+00
      1.24360800e+00 1.04761910e+00 1.71830988e+00 1.45738637e+00
      1.01922393e+00 1.23769343e+00 1.05136991e+00 1.54074073e+00
      1.44303799e+00 1.00712967e+00 1.29579699e+00 1.08214283e+00
      1.47967482e+00 1.54851937e+00 9.68988121e-01 1.24743772e+00
      1.05161285e+00 1.45982146e+00 1.44655931e+00 1.02225435e+00
      1.24360800e+00 1.04761910e+00 1.71830988e+00 1.45738637e+00
      1.01922393e+00 1.30541456e+00 1.06578946e+00 1.42741930e+00
      1.58136773e+00 9.01271641e-01 1.32236290e+00 1.03931201e+00
      1.47028422e+00 1.56118143e+00 9.71333146e-01 1.24743772e+00
      1.05161285e+00 1.45982146e+00 1.44655931e+00 1.02225435e+00
      1.24743772e+00 1.05161285e+00 1.45982146e+00 1.44655931e+00
      1.02225435e+00 1.24360800e+00 1.04761910e+00 1.71830988e+00
      1.45738637e+00 1.01922393e+00 1.30541456e+00 1.06578946e+00
      1.42741930e+00 1.58136773e+00 9.01271641e-01 1.29772913e+00
      1.05528843e+00 1.41317368e+00 1.57462776e+00 8.36218536e-01
      1.30541456e+00 1.06578946e+00 1.42741930e+00 1.58136773e+00
      9.01271641e-01 1.30541456e+00 1.06578946e+00 1.42741930e+00
      1.58136773e+00 9.01271641e-01 1.28934014e+00 1.05178571e+00
      1.36394560e+00 1.56328511e+00 9.56737161e-01 1.29772913e+00
      1.05528843e+00 1.41317368e+00 1.57462776e+00 8.36218536e-01
      1.30541456e+00 1.06578946e+00 1.42741930e+00 1.58136773e+00
      9.01271641e-01 1.29772913e+00 1.05528843e+00 1.41317368e+00
      1.57462776e+00 8.36218536e-01 1.28934014e+00 1.05178571e+00
      1.36394560e+00 1.56328511e+00 9.56737161e-01 1.30541456e+00
      1.06578946e+00 1.42741930e+00 1.58136773e+00 9.01271641e-01
      1.29772913e+00 1.05528843e+00 1.41317368e+00 1.57462776e+00
      8.36218536e-01 1.32236290e+00 1.03931201e+00 1.47028422e+00
      1.56118143e+00 9.71333146e-01 1.28715360e+00 1.03024197e+00
      1.35185182e+00 1.55331659e+00 9.71816599e-01 1.28715360e+00
      1.03024197e+00 1.35185182e+00 1.55331659e+00 9.71816599e-01
      1.24360800e+00 1.04761910e+00 1.71830988e+00 1.45738637e+00
      1.01922393e+00 1.28934014e+00 1.05178571e+00 1.36394560e+00
      1.56328511e+00 9.56737161e-01 1.24360800e+00 1.04761910e+00
      1.71830988e+00 1.45738637e+00 1.01922393e+00 1.28934014e+00
      1.05178571e+00 1.36394560e+00 1.56328511e+00 9.56737161e-01
      1.29396987e+00 1.08571434e+00 1.37627816e+00 1.54549766e+00
      1.08735073e+00 1.24360800e+00 1.04761910e+00 1.71830988e+00
      1.45738637e+00 1.01922393e+00 1.29396987e+00 1.08571434e+00
      1.37627816e+00 1.54549766e+00 1.08735073e+00 1.24360800e+00
      1.04761910e+00 1.71830988e+00 1.45738637e+00 1.01922393e+00
      1.24743772e+00 1.05161285e+00 1.45982146e+00 1.44655931e+00
      1.02225435e+00 1.23769343e+00 1.05136991e+00 1.54074073e+00
      1.44303799e+00 1.00712967e+00 1.29772913e+00 1.05528843e+00
      1.41317368e+00 1.57462776e+00 8.36218536e-01 1.23769343e+00
      1.05136991e+00 1.54074073e+00 1.44303799e+00 1.00712967e+00
      1.24360800e+00 1.04761910e+00 1.71830988e+00 1.45738637e+00
      1.01922393e+00 1.28715360e+00 1.03024197e+00 1.35185182e+00
      1.55331659e+00 9.71816599e-01 1.29579699e+00 1.08214283e+00
      1.47967482e+00 1.54851937e+00 9.68988121e-01 1.28934014e+00
      1.05178571e+00 1.36394560e+00 1.56328511e+00 9.56737161e-01
      1.28934014e+00 1.05178571e+00 1.36394560e+00 1.56328511e+00
      9.56737161e-01 1.29396987e+00 1.08571434e+00 1.37627816e+00
      1.54549766e+00 1.08735073e+00 1.26932085e+00 1.05019307e+00
      1.42857146e+00 1.52710891e+00 8.79500091e-01 1.29772913e+00
      1.05528843e+00 1.41317368e+00 1.57462776e+00 8.36218536e-01
      1.24743772e+00 1.05161285e+00 1.45982146e+00 1.44655931e+00
      1.02225435e+00 1.29772913e+00 1.05528843e+00 1.41317368e+00
      1.57462776e+00 8.36218536e-01 1.26932085e+00 1.05019307e+00
      1.42857146e+00 1.52710891e+00 8.79500091e-01 1.29772913e+00
      1.05528843e+00 1.41317368e+00 1.57462776e+00 8.36218536e-01
      1.29579699e+00 1.08214283e+00 1.47967482e+00 1.54851937e+00
      9.68988121e-01 1.23769343e+00 1.05136991e+00 1.54074073e+00
      1.44303799e+00 1.00712967e+00 1.24743772e+00 1.05161285e+00
      1.45982146e+00 1.44655931e+00 1.02225435e+00 1.30541456e+00
      1.06578946e+00 1.42741930e+00 1.58136773e+00 9.01271641e-01
      1.28934014e+00 1.05178571e+00 1.36394560e+00 1.56328511e+00
      9.56737161e-01 1.29579699e+00 1.08214283e+00 1.47967482e+00
      1.54851937e+00 9.68988121e-01 1.23769343e+00 1.05136991e+00
      1.54074073e+00 1.44303799e+00 1.00712967e+00 1.30541456e+00
      1.06578946e+00 1.42741930e+00 1.58136773e+00 9.01271641e-01
      1.24360800e+00 1.04761910e+00 1.71830988e+00 1.45738637e+00
      1.01922393e+00 1.30541456e+00 1.06578946e+00 1.42741930e+00
      1.58136773e+00 9.01271641e-01 1.24360800e+00 1.04761910e+00
      1.71830988e+00 1.45738637e+00 1.01922393e+00 1.28715360e+00
      1.03024197e+00 1.35185182e+00 1.55331659e+00 9.71816599e-01
      1.22274327e+00 1.04040408e+00 1.34895837e+00 1.43493557e+00
      1.04378903e+00 1.20187795e+00 1.09420288e+00 1.37768245e+00
      1.39671361e+00 1.08163106e+00 1.20187795e+00 1.09420288e+00
      1.37768245e+00 1.39671361e+00 1.08163106e+00 1.22274327e+00
      1.04040408e+00 1.34895837e+00 1.43493557e+00 1.04378903e+00
      1.22680414e+00 1. 1.38172042e+00 1.40206182e+00 1.01075780e+00
      1.24154031e+00 1.09243703e+00 1.42660546e+00 1.47024500e+00
      1.04672456e+00 1.22274327e+00 1.04040408e+00 1.34895837e+00
      1.43493557e+00 1.04378903e+00 1.23266745e+00 1.08196723e+00
      1.42352939e+00 1.43830788e+00 9.91939425e-01 1.23446655e+00
      1.05949008e+00 1.38308454e+00 1.47713947e+00 8.94483745e-01
      1.23411763e+00 1.08333337e+00 1.38172042e+00 1.44000006e+00
      1.01065207e+00 1.22680414e+00 1. 1.38172042e+00 1.40206182e+00
      1.01075780e+00 1.20187795e+00 1.09420288e+00 1.37768245e+00
      1.39671361e+00 1.08163106e+00 1.22680414e+00 1. 1.38172042e+00
      1.40206182e+00 1.01075780e+00 1.23446655e+00 1.05949008e+00
      1.38308454e+00 1.47713947e+00 8.94483745e-01 1.23266745e+00
      1.08196723e+00 1.42352939e+00 1.43830788e+00 9.91939425e-01
      1.22727275e+00 1.05194807e+00 1.37558687e+00 1.46419895e+00
      8.80745292e-01 1.22680414e+00 1. 1.38172042e+00 1.40206182e+00
      1.01075780e+00 1.23266745e+00 1.08196723e+00 1.42352939e+00
      1.43830788e+00 9.91939425e-01 1.23446655e+00 1.05949008e+00
      1.38308454e+00 1.47713947e+00 8.94483745e-01 1.22837365e+00
      1.06666672e+00 1.44270837e+00 1.45328724e+00 1.03686023e+00
      1.20187795e+00 1.09420288e+00 1.37768245e+00 1.39671361e+00
      1.08163106e+00 1.22727275e+00 1.05194807e+00 1.37558687e+00
      1.46419895e+00 8.80745292e-01 1.22274327e+00 1.04040408e+00
      1.34895837e+00 1.43493557e+00 1.04378903e+00 1.22599530e+00
      1.07731962e+00 1.26869810e+00 1.40528369e+00 9.05506670e-01
      1.23266745e+00 1.08196723e+00 1.42352939e+00 1.43830788e+00
      9.91939425e-01 1.23266745e+00 1.08196723e+00 1.42352939e+00
      1.43830788e+00 9.91939425e-01 1.24154031e+00 1.09243703e+00
      1.42660546e+00 1.47024500e+00 1.04672456e+00 1.20187795e+00
      1.09420288e+00 1.37768245e+00 1.39671361e+00 1.08163106e+00
      1.22727275e+00 1.05194807e+00 1.37558687e+00 1.46419895e+00
      8.80745292e-01 1.22274327e+00 1.04040408e+00 1.34895837e+00
      1.43493557e+00 1.04378903e+00 1.20187795e+00 1.09420288e+00
      1.37768245e+00 1.39671361e+00 1.08163106e+00 1.23446655e+00
      1.05949008e+00 1.38308454e+00 1.47713947e+00 8.94483745e-01
      1.23266745e+00 1.08196723e+00 1.42352939e+00 1.43830788e+00
      9.91939425e-01 1.22837365e+00 1.06666672e+00 1.44270837e+00
      1.45328724e+00 1.03686023e+00 1.23411763e+00 1.08333337e+00
      1.38172042e+00 1.44000006e+00 1.01065207e+00 1.23446655e+00
      1.05949008e+00 1.38308454e+00 1.47713947e+00 8.94483745e-01
      1.21241045e+00 1.08333337e+00 1.45341611e+00 1.37947500e+00
      9.99108672e-01 1.23446655e+00 1.05949008e+00 1.38308454e+00
      1.47713947e+00 8.94483745e-01 1.22680414e+00 1. 1.38172042e+00
      1.40206182e+00 1.01075780e+00 1.22599530e+00 1.07731962e+00
      1.26869810e+00 1.40528369e+00 9.05506670e-01</data></samples>
  <responses type_id="opencv-matrix">
    <rows>640</rows>
    <cols>1</cols>
    <dt>f</dt>
    <data>
      8. 8. 8. 8. 8. 8. 8. 8. 8. 8. 8. 8. 8. 8. 8. 8. 8. 8. 8. 8. 8. 8.
      8. 8. 8. 8. 8. 8. 8. 8. 8. 8. 8. 8. 8. 8. 8. 8. 8. 8. 8. 8. 8. 8.
      8. 8. 8. 8. 8. 8. 8. 8. 8. 8. 8. 8. 8. 8. 8. 8. 8. 8. 8. 8. 8. 8.
      8. 8. 8. 8. 8. 8. 8. 8. 8. 8. 8. 8. 8. 8. 8. 8. 8. 8. 8. 8. 8. 8.
      8. 8. 8. 8. 8. 8. 8. 8. 8. 8. 8. 8. 8. 8. 8. 8. 8. 8. 8. 8. 8. 8.
      8. 8. 8. 8. 8. 8. 8. 8. 8. 8. 8. 8. 8. 8. 8. 8. 8. 8. 8. 8. 8. 8.
      8. 8. 8. 8. 8. 8. 8. 8. 8. 8. 8. 8. 8. 8. 8. 8. 8. 8. 8. 8. 8. 8.
      8. 8. 8. 8. 8. 8. 11. 11. 11. 11. 11. 11. 11. 11. 11. 11. 11. 11.
      11. 11. 11. 11. 11. 11. 11. 11. 11. 11. 11. 11. 11. 11. 11. 11.
      11. 11. 11. 11. 11. 11. 11. 11. 11. 11. 11. 11. 11. 11. 11. 11.
      11. 11. 11. 11. 11. 11. 11. 11. 11. 11. 11. 11. 11. 11. 11. 11.
      11. 11. 11. 11. 11. 11. 11. 11. 11. 11. 11. 11. 11. 11. 11. 11.
      11. 11. 11. 11. 11. 11. 11. 11. 11. 11. 11. 11. 11. 11. 11. 11.
      11. 11. 11. 11. 11. 11. 11. 11. 11. 11. 11. 11. 11. 11. 11. 11.
      11. 11. 11. 11. 11. 11. 11. 11. 11. 11. 11. 11. 11. 11. 11. 11.
      11. 11. 11. 11. 11. 11. 11. 11. 11. 11. 11. 11. 11. 11. 11. 11.
      11. 11. 11. 11. 11. 11. 11. 11. 11. 11. 11. 11. 11. 11. 11. 11.
      11. 11. 11. 11. 12. 12. 12. 12. 12. 12. 12. 12. 12. 12. 12. 12.
      12. 12. 12. 12. 12. 12. 12. 12. 12. 12. 12. 12. 12. 12. 12. 12.
      12. 12. 12. 12. 12. 12. 12. 12. 12. 12. 12. 12. 12. 12. 12. 12.
      12. 12. 12. 12. 12. 12. 12. 12. 12. 12. 12. 12. 12. 12. 12. 12.
      12. 12. 12. 12. 12. 12. 12. 12. 12. 12. 12. 12. 12. 12. 12. 12.
      12. 12. 12. 12. 12. 12. 12. 12. 12. 12. 12. 12. 12. 12. 12. 12.
      12. 12. 12. 12. 12. 12. 12. 12. 12. 12. 12. 12. 12. 12. 12. 12.
      12. 12. 12. 12. 12. 12. 12. 12. 12. 12. 12. 12. 12. 12. 12. 12.
      12. 12. 12. 12. 12. 12. 12. 12. 12. 12. 12. 12. 12. 12. 12. 12.
      12. 12. 12. 12. 12. 12. 12. 12. 12. 12. 12. 12. 12. 12. 12. 12.
      12. 12. 12. 12. 14. 14. 14. 14. 14. 14. 14. 14. 14. 14. 14. 14.
      14. 14. 14. 14. 14. 14. 14. 14. 14. 14. 14. 14. 14. 14. 14. 14.
      14. 14. 14. 14. 14. 14. 14. 14. 14. 14. 14. 14. 14. 14. 14. 14.
      14. 14. 14. 14. 14. 14. 14. 14. 14. 14. 14. 14. 14. 14. 14. 14.
      14. 14. 14. 14. 14. 14. 14. 14. 14. 14. 14. 14. 14. 14. 14. 14.
      14. 14. 14. 14. 14. 14. 14. 14. 14. 14. 14. 14. 14. 14. 14. 14.
      14. 14. 14. 14. 14. 14. 14. 14. 14. 14. 14. 14. 14. 14. 14. 14.
      14. 14. 14. 14. 14. 14. 14. 14. 14. 14. 14. 14. 14. 14. 14. 14.
      14. 14. 14. 14. 14. 14. 14. 14. 14. 14. 14. 14. 14. 14. 14. 14.
      14. 14. 14. 14. 14. 14. 14. 14. 14. 14. 14. 14. 14. 14. 14. 14.
      14. 14. 14. 14.</data></responses></opencv_ml_knn>
</opencv_storage>
