<?xml version="1.0"?>
<opencv_storage>
<opencv_ml_knn>
  <format>3</format>
  <is_classifier>1</is_classifier>
  <default_k>10</default_k>
  <samples type_id="opencv-matrix">
    <rows>640</rows>
    <cols>4</cols>
    <dt>f</dt>
    <data>
      1.30051434e+00 1.16363633e+00 1.42780030e+00 1.50330651e+00
      1.27052784e+00 1.15209126e+00 1.37369788e+00 1.43037772e+00
      1.30168009e+00 1.17680609e+00 1.42895806e+00 1.51773858e+00
      1.34947836e+00 1.26813185e+00 1.43765903e+00 1.57675099e+00
      1.27052784e+00 1.15209126e+00 1.37369788e+00 1.43037772e+00
      1.30051434e+00 1.16363633e+00 1.42780030e+00 1.50330651e+00
      1.30774963e+00 1.21082616e+00 1.45369124e+00 1.50894201e+00
      1.30774963e+00 1.21082616e+00 1.45369124e+00 1.50894201e+00
      1.30746484e+00 1.16165411e+00 1.43675101e+00 1.49667406e+00
      1.29105568e+00 1.46396399e+00 1.33729219e+00 1.45570242e+00
      1.29105568e+00 1.46396399e+00 1.33729219e+00 1.45570242e+00
      1.29955626e+00 1.18539321e+00 1.40641713e+00 1.50192750e+00
      1.27052784e+00 1.15209126e+00 1.37369788e+00 1.43037772e+00
      1.29105568e+00 1.46396399e+00 1.33729219e+00 1.45570242e+00
      1.29955626e+00 1.18539321e+00 1.40641713e+00 1.50192750e+00
      1.30168009e+00 1.17680609e+00 1.42895806e+00 1.51773858e+00
      1.30168009e+00 1.17680609e+00 1.42895806e+00 1.51773858e+00
      1.29105568e+00 1.46396399e+00 1.33729219e+00 1.45570242e+00
      1.30051434e+00 1.16363633e+00 1.42780030e+00 1.50330651e+00
      1.30746484e+00 1.16165411e+00 1.43675101e+00 1.49667406e+00
      1.30051434e+00 1.16363633e+00 1.42780030e+00 1.50330651e+00
      1.29955626e+00 1.18539321e+00 1.40641713e+00 1.50192750e+00
      1.29105568e+00 1.46396399e+00 1.33729219e+00 1.45570242e+00
      1.30876935e+00 1.29912019e+00 1.37500000e+00 1.47154236e+00
      1.30168009e+00 1.17680609e+00 1.42895806e+00 1.51773858e+00
      1.30168009e+00 1.17680609e+00 1.42895806e+00 1.51773858e+00
      1.28031957e+00 1.13999999e+00 1.40608466e+00 1.48171699e+00
      1.30876935e+00 1.29912019e+00 1.37500000e+00 1.47154236e+00
      1.30051434e+00 1.16363633e+00 1.42780030e+00 1.50330651e+00
      1.30746484e+00 1.16165411e+00 1.43675101e+00 1.49667406e+00
      1.28031957e+00 1.13999999e+00 1.40608466e+00 1.48171699e+00
      1.26613486e+00 1.19498610e+00 1.37179482e+00 1.44671834e+00
      1.34947836e+00 1.26813185e+00 1.43765903e+00 1.57675099e+00
      1.27052784e+00 1.15209126e+00 1.37369788e+00 1.43037772e+00
      1.27052784e+00 1.15209126e+00 1.37369788e+00 1.43037772e+00
      1.29955626e+00 1.18539321e+00 1.40641713e+00 1.50192750e+00
      1.29955626e+00 1.18539321e+00 1.40641713e+00 1.50192750e+00
      1.27052784e+00 1.15209126e+00 1.37369788e+00 1.43037772e+00
      1.34947836e+00 1.26813185e+00 1.43765903e+00 1.57675099e+00
      1.29105568e+00 1.46396399e+00 1.33729219e+00 1.45570242e+00
      1.30876935e+00 1.29912019e+00 1.37500000e+00 1.47154236e+00
      1.34947836e+00 1.26813185e+00 1.43765903e+00 1.57675099e+00
      1.34947836e+00 1.26813185e+00 1.43765903e+00 1.57675099e+00
      1.27052784e+00 1.15209126e+00 1.37369788e+00 1.43037772e+00
      1.30168009e+00 1.17680609e+00 1.42895806e+00 1.51773858e+00
      1.34947836e+00 1.26813185e+00 1.43765903e+00 1.57675099e+00
      1.29955626e+00 1.18539321e+00 1.40641713e+00 1.50192750e+00
      1.30168009e+00 1.17680609e+00 1.42895806e+00 1.51773858e+00
      1.26613486e+00 1.19498610e+00 1.37179482e+00 1.44671834e+00
      1.30876935e+00 1.29912019e+00 1.37500000e+00 1.47154236e+00
      1.30876935e+00 1.29912019e+00 1.37500000e+00 1.47154236e+00
      1.30746484e+00 1.16165411e+00 1.43675101e+00 1.49667406e+00
      1.34947836e+00 1.26813185e+00 1.43765903e+00 1.57675099e+00
      1.29105568e+00 1.46396399e+00 1.33729219e+00 1.45570242e+00
      1.30168009e+00 1.17680609e+00 1.42895806e+00 1.51773858e+00
      1.30051434e+00 1.16363633e+00 1.42780030e+00 1.50330651e+00
      1.26613486e+00 1.19498610e+00 1.37179482e+00 1.44671834e+00
      1.34947836e+00 1.26813185e+00 1.43765903e+00 1.57675099e+00
      1.30051434e+00 1.16363633e+00 1.42780030e+00 1.50330651e+00
      1.29105568e+00 1.46396399e+00 1.33729219e+00 1.45570242e+00
      1.31537712e+00 1.17955112e+00 1.44049728e+00 1.60430944e+00
      1.31133008e+00 1.14646471e+00 1.45551598e+00 1.58260262e+00
      1.28709996e+00 1.14177215e+00 1.55069125e+00 1.55999291e+00
      1.29636896e+00 1.19827580e+00 1.39115644e+00 1.56624138e+00
      1.31133008e+00 1.14646471e+00 1.45551598e+00 1.58260262e+00
      1.29585803e+00 1.18309855e+00 1.38640130e+00 1.53648925e+00
      1.29636896e+00 1.19827580e+00 1.39115644e+00 1.56624138e+00
      1.31537712e+00 1.17955112e+00 1.44049728e+00 1.60430944e+00
      1.31755424e+00 1.22074473e+00 1.40721655e+00 1.61538446e+00
      1.30481803e+00 1.20298505e+00 1.39899838e+00 1.57018912e+00
      1.30481803e+00 1.20298505e+00 1.39899838e+00 1.57018912e+00
      1.31755424e+00 1.22074473e+00 1.40721655e+00 1.61538446e+00
      1.28709996e+00 1.14177215e+00 1.55069125e+00 1.55999291e+00
      1.31542289e+00 1.17270195e+00 1.42881358e+00 1.58935022e+00
      1.31133008e+00 1.14646471e+00 1.45551598e+00 1.58260262e+00
      1.29585803e+00 1.18309855e+00 1.38640130e+00 1.53648925e+00
      1.29585803e+00 1.18309855e+00 1.38640130e+00 1.53648925e+00
      1.29636896e+00 1.19827580e+00 1.39115644e+00 1.56624138e+00
      1.31641793e+00 1.25570774e+00 1.43293715e+00 1.58935022e+00
      1.31641793e+00 1.25570774e+00 1.43293715e+00 1.58935022e+00
      1.28823531e+00 1.14698160e+00 1.54233408e+00 1.53529429e+00
      1.31641793e+00 1.25570774e+00 1.43293715e+00 1.58935022e+00
      1.31010795e+00 1.20215631e+00 1.40371621e+00 1.56596446e+00
      1.30481803e+00 1.20298505e+00 1.39899838e+00 1.57018912e+00
      1.29585803e+00 1.18309855e+00 1.38640130e+00 1.53648925e+00
      1.31542289e+00 1.17270195e+00 1.42881358e+00 1.58935022e+00
      1.29585803e+00 1.18309855e+00 1.38640130e+00 1.53648925e+00
      1.31641793e+00 1.25570774e+00 1.43293715e+00 1.58935022e+00
      1.31641793e+00 1.25570774e+00 1.43293715e+00 1.58935022e+00
      1.31641793e+00 1.25570774e+00 1.43293715e+00 1.58935022e+00
      1.31542289e+00 1.17270195e+00 1.42881358e+00 1.58935022e+00
      1.28709996e+00 1.14177215e+00 1.55069125e+00 1.55999291e+00
      1.31641793e+00 1.25570774e+00 1.43293715e+00 1.58935022e+00
      1.31641793e+00 1.25570774e+00 1.43293715e+00 1.58935022e+00
      1.30481803e+00 1.20298505e+00 1.39899838e+00 1.57018912e+00
      1.31010795e+00 1.20215631e+00 1.40371621e+00 1.56596446e+00
      1.31641793e+00 1.25570774e+00 1.43293715e+00 1.58935022e+00
      1.28709996e+00 1.14177215e+00 1.55069125e+00 1.55999291e+00
      1.31641793e+00 1.25570774e+00 1.43293715e+00 1.58935022e+00
      1.31542289e+00 1.17270195e+00 1.42881358e+00 1.58935022e+00
      1.31133008e+00 1.14646471e+00 1.45551598e+00 1.58260262e+00
      1.28709996e+00 1.14177215e+00 1.55069125e+00 1.55999291e+00
      1.31010795e+00 1.20215631e+00 1.40371621e+00 1.56596446e+00
      1.31542289e+00 1.17270195e+00 1.42881358e+00 1.58935022e+00
      1.28823531e+00 1.14698160e+00 1.54233408e+00 1.53529429e+00
      1.29585803e+00 1.18309855e+00 1.38640130e+00 1.53648925e+00
      1.31641793e+00 1.25570774e+00 1.43293715e+00 1.58935022e+00
      1.31542289e+00 1.17270195e+00 1.42881358e+00 1.58935022e+00
      1.31755424e+00 1.22074473e+00 1.40721655e+00 1.61538446e+00
      1.31755424e+00 1.22074473e+00 1.40721655e+00 1.61538446e+00
      1.30481803e+00 1.20298505e+00 1.39899838e+00 1.57018912e+00
      1.28823531e+00 1.14698160e+00 1.54233408e+00 1.53529429e+00
      1.29585803e+00 1.18309855e+00 1.38640130e+00 1.53648925e+00
      1.31641793e+00 1.25570774e+00 1.43293715e+00 1.58935022e+00
      1.31641793e+00 1.25570774e+00 1.43293715e+00 1.58935022e+00
      1.31010795e+00 1.20215631e+00 1.40371621e+00 1.56596446e+00
      1.31133008e+00 1.14646471e+00 1.45551598e+00 1.58260262e+00
      1.30481803e+00 1.20298505e+00 1.39899838e+00 1.57018912e+00
      1.31641793e+00 1.25570774e+00 1.43293715e+00 1.58935022e+00
      1.31537712e+00 1.17955112e+00 1.44049728e+00 1.60430944e+00
      1.30936456e+00 1.23987544e+00 1.43628180e+00 1.55673611e+00
      1.31957066e+00 1.14770460e+00 1.48822606e+00 1.57193565e+00
      1.30936456e+00 1.23987544e+00 1.43628180e+00 1.55673611e+00
      1.28026533e+00 1.25724638e+00 1.38561153e+00 1.51948392e+00
      1.31957066e+00 1.14770460e+00 1.48822606e+00 1.57193565e+00
      1.30481732e+00 1.20059884e+00 1.43083572e+00 1.54639232e+00
      1.30936456e+00 1.23987544e+00 1.43628180e+00 1.55673611e+00
      1.32397962e+00 1.30508471e+00 1.47685182e+00 1.57227874e+00
      1.31543624e+00 1.31021893e+00 1.42752564e+00 1.56810892e+00
      1.31719530e+00 1.17938149e+00 1.48013246e+00 1.55758667e+00
      1.31989920e+00 1.22188449e+00 1.44752192e+00 1.58858085e+00
      1.32397962e+00 1.30508471e+00 1.47685182e+00 1.57227874e+00
      1.32392025e+00 1.13953483e+00 1.58703709e+00 1.59202290e+00
      1.30936456e+00 1.23987544e+00 1.43628180e+00 1.55673611e+00
      1.30016589e+00 1.27272725e+00 1.46687698e+00 1.53316808e+00
      1.32392025e+00 1.13953483e+00 1.58703709e+00 1.59202290e+00
      1.31957066e+00 1.14770460e+00 1.48822606e+00 1.57193565e+00
      1.32392025e+00 1.13953483e+00 1.58703709e+00 1.59202290e+00
      1.30481732e+00 1.20059884e+00 1.43083572e+00 1.54639232e+00
      1.31592035e+00 1.15694165e+00 1.47327042e+00 1.56882238e+00
      1.32392025e+00 1.13953483e+00 1.58703709e+00 1.59202290e+00
      1.31592035e+00 1.15694165e+00 1.47327042e+00 1.56882238e+00
      1.31592035e+00 1.15694165e+00 1.47327042e+00 1.56882238e+00
      1.31957066e+00 1.14770460e+00 1.48822606e+00 1.57193565e+00
      1.30936456e+00 1.23987544e+00 1.43628180e+00 1.55673611e+00
      1.31543624e+00 1.31021893e+00 1.42752564e+00 1.56810892e+00
      1.31592035e+00 1.15694165e+00 1.47327042e+00 1.56882238e+00
      1.31543624e+00 1.31021893e+00 1.42752564e+00 1.56810892e+00
      1.32392025e+00 1.13953483e+00 1.58703709e+00 1.59202290e+00
      1.31719530e+00 1.17938149e+00 1.48013246e+00 1.55758667e+00
      1.30936456e+00 1.23987544e+00 1.43628180e+00 1.55673611e+00
      1.31543624e+00 1.31021893e+00 1.42752564e+00 1.56810892e+00
      1.31719530e+00 1.17938149e+00 1.48013246e+00 1.55758667e+00
      1.30936456e+00 1.23987544e+00 1.43628180e+00 1.55673611e+00
      1.31989920e+00 1.22188449e+00 1.44752192e+00 1.58858085e+00
      1.31989920e+00 1.22188449e+00 1.44752192e+00 1.58858085e+00
      1.31957066e+00 1.14770460e+00 1.48822606e+00 1.57193565e+00
      1.31719530e+00 1.17938149e+00 1.48013246e+00 1.55758667e+00
      1.31989920e+00 1.22188449e+00 1.44752192e+00 1.58858085e+00
      1.30016589e+00 1.27272725e+00 1.46687698e+00 1.53316808e+00
      2.08990002e+00 1.91160226e+00 2.13502121e+00 2.50166416e+00
      2.09523821e+00 2.06481481e+00 2.08576989e+00 2.54111004e+00
      2.06659389e+00 2.20253158e+00 2.15310073e+00 2.50504613e+00
      2.09523821e+00 2.06481481e+00 2.08576989e+00 2.54111004e+00
      2.12208652e+00 2.39084506e+00 2.17159772e+00 2.59121323e+00
      2.12208652e+00 2.39084506e+00 2.17159772e+00 2.59121323e+00
      2.08093119e+00 2.38281250e+00 2.11881185e+00 2.52999115e+00
      2.06659389e+00 2.20253158e+00 2.15310073e+00 2.50504613e+00
      2.07608700e+00 2.02064896e+00 2.13819575e+00 2.54999995e+00
      2.10186195e+00 2.07739949e+00 2.15779471e+00 2.57233405e+00
      2.08990002e+00 1.91160226e+00 2.13502121e+00 2.50166416e+00
      2.08990002e+00 1.91160226e+00 2.13502121e+00 2.50166416e+00
      2.08093119e+00 2.38281250e+00 2.11881185e+00 2.52999115e+00
      2.10186195e+00 2.07739949e+00 2.15779471e+00 2.57233405e+00
      2.09523821e+00 2.06481481e+00 2.08576989e+00 2.54111004e+00
      2.06659389e+00 2.20253158e+00 2.15310073e+00 2.50504613e+00
      2.14333344e+00 2.30960846e+00 2.21387291e+00 2.65286303e+00
      2.08498907e+00 2.13043475e+00 2.14757276e+00 2.53624797e+00
      2.08498907e+00 2.13043475e+00 2.14757276e+00 2.53624797e+00
      2.08498907e+00 2.13043475e+00 2.14757276e+00 2.53624797e+00
      2.14333344e+00 2.30960846e+00 2.21387291e+00 2.65286303e+00
      2.08990002e+00 1.91160226e+00 2.13502121e+00 2.50166416e+00
      2.10186195e+00 2.07739949e+00 2.15779471e+00 2.57233405e+00
      2.08681321e+00 2.21904755e+00 2.22068977e+00 2.53076863e+00
      2.14333344e+00 2.30960846e+00 2.21387291e+00 2.65286303e+00
      2.08681321e+00 2.21904755e+00 2.22068977e+00 2.53076863e+00
      2.12208652e+00 2.39084506e+00 2.17159772e+00 2.59121323e+00
      2.06659389e+00 2.20253158e+00 2.15310073e+00 2.50504613e+00
      2.07608700e+00 2.02064896e+00 2.13819575e+00 2.54999995e+00
      2.12208652e+00 2.39084506e+00 2.17159772e+00 2.59121323e+00
      2.14333344e+00 2.30960846e+00 2.21387291e+00 2.65286303e+00
      2.06659389e+00 2.20253158e+00 2.15310073e+00 2.50504613e+00
      2.12208652e+00 2.39084506e+00 2.17159772e+00 2.59121323e+00
      2.12208652e+00 2.39084506e+00 2.17159772e+00 2.59121323e+00
      2.12208652e+00 2.39084506e+00 2.17159772e+00 2.59121323e+00
      2.14333344e+00 2.30960846e+00 2.21387291e+00 2.65286303e+00
      2.10186195e+00 2.07739949e+00 2.15779471e+00 2.57233405e+00
      2.14333344e+00 2.30960846e+00 2.21387291e+00 2.65286303e+00
      2.14333344e+00 2.30960846e+00 2.21387291e+00 2.65286303e+00
      2.14333344e+00 2.30960846e+00 2.21387291e+00 2.65286303e+00
      2.09523821e+00 2.06481481e+00 2.08576989e+00 2.54111004e+00
      2.10186195e+00 2.07739949e+00 2.15779471e+00 2.57233405e+00
      2.08093119e+00 2.38281250e+00 2.11881185e+00 2.52999115e+00
      2.12208652e+00 2.39084506e+00 2.17159772e+00 2.59121323e+00
      2.06659389e+00 2.20253158e+00 2.15310073e+00 2.50504613e+00
      2.07608700e+00 2.02064896e+00 2.13819575e+00 2.54999995e+00
      2.09523821e+00 2.06481481e+00 2.08576989e+00 2.54111004e+00
      2.10186195e+00 2.07739949e+00 2.15779471e+00 2.57233405e+00
      2.12208652e+00 2.39084506e+00 2.17159772e+00 2.59121323e+00
      2.14333344e+00 2.30960846e+00 2.21387291e+00 2.65286303e+00
      2.08681321e+00 2.21904755e+00 2.22068977e+00 2.53076863e+00
      2.08093119e+00 2.38281250e+00 2.11881185e+00 2.52999115e+00
      2.14333344e+00 2.30960846e+00 2.21387291e+00 2.65286303e+00
      2.10186195e+00 2.07739949e+00 2.15779471e+00 2.57233405e+00
      2.08498907e+00 2.13043475e+00 2.14757276e+00 2.53624797e+00
      2.09523821e+00 2.06481481e+00 2.08576989e+00 2.54111004e+00
      2.07608700e+00 2.02064896e+00 2.13819575e+00 2.54999995e+00
      2.08681321e+00 2.21904755e+00 2.22068977e+00 2.53076863e+00
      2.12208652e+00 2.39084506e+00 2.17159772e+00 2.59121323e+00
      2.06659389e+00 2.20253158e+00 2.15310073e+00 2.50504613e+00
      2.21518993e+00 2.67005086e+00 2.31051350e+00 2.60056210e+00
      2.20527053e+00 2.86387444e+00 2.26076555e+00 2.62413287e+00
      2.15994430e+00 2.49514556e+00 2.15764713e+00 2.47269249e+00
      2.22160673e+00 2.29962540e+00 2.32786894e+00 2.64702654e+00
      2.21518993e+00 2.67005086e+00 2.31051350e+00 2.60056210e+00
      2.20527053e+00 2.86387444e+00 2.26076555e+00 2.62413287e+00
      2.21518993e+00 2.67005086e+00 2.31051350e+00 2.60056210e+00
      2.20527053e+00 2.86387444e+00 2.26076555e+00 2.62413287e+00
      2.24005675e+00 2.37117910e+00 2.33251238e+00 2.62642002e+00
      2.22160673e+00 2.29962540e+00 2.32786894e+00 2.64702654e+00
      2.21518993e+00 2.67005086e+00 2.31051350e+00 2.60056210e+00
      2.21518993e+00 2.67005086e+00 2.31051350e+00 2.60056210e+00
      2.17154813e+00 2.60091734e+00 2.28532600e+00 2.52666950e+00
      2.22160673e+00 2.29962540e+00 2.32786894e+00 2.64702654e+00
      2.20527053e+00 2.86387444e+00 2.26076555e+00 2.62413287e+00
      2.20527053e+00 2.86387444e+00 2.26076555e+00 2.62413287e+00
      2.17154813e+00 2.60091734e+00 2.28532600e+00 2.52666950e+00
      2.18392372e+00 2.39325833e+00 2.30666661e+00 2.60365438e+00
      2.21518993e+00 2.67005086e+00 2.31051350e+00 2.60056210e+00
      2.21518993e+00 2.67005086e+00 2.31051350e+00 2.60056210e+00
      2.21518993e+00 2.67005086e+00 2.31051350e+00 2.60056210e+00
      2.15983605e+00 2.12549019e+00 2.17948723e+00 2.52458978e+00
      2.22160673e+00 2.29962540e+00 2.32786894e+00 2.64702654e+00
      2.17154813e+00 2.60091734e+00 2.28532600e+00 2.52666950e+00
      2.14738297e+00 2.20229006e+00 2.24250674e+00 2.49509025e+00
      2.15983605e+00 2.12549019e+00 2.17948723e+00 2.52458978e+00
      2.18392372e+00 2.39325833e+00 2.30666661e+00 2.60365438e+00
      2.21518993e+00 2.67005086e+00 2.31051350e+00 2.60056210e+00
      2.22160673e+00 2.29962540e+00 2.32786894e+00 2.64702654e+00
      2.15994430e+00 2.49514556e+00 2.15764713e+00 2.47269249e+00
      2.14482760e+00 2.55072474e+00 2.15121961e+00 2.50293279e+00
      2.14738297e+00 2.20229006e+00 2.24250674e+00 2.49509025e+00
      2.14738297e+00 2.20229006e+00 2.24250674e+00 2.49509025e+00
      2.21518993e+00 2.67005086e+00 2.31051350e+00 2.60056210e+00
      2.18392372e+00 2.39325833e+00 2.30666661e+00 2.60365438e+00
      2.15983605e+00 2.12549019e+00 2.17948723e+00 2.52458978e+00
      2.14482760e+00 2.55072474e+00 2.15121961e+00 2.50293279e+00
      2.15994430e+00 2.49514556e+00 2.15764713e+00 2.47269249e+00
      2.14738297e+00 2.20229006e+00 2.24250674e+00 2.49509025e+00
      2.21518993e+00 2.67005086e+00 2.31051350e+00 2.60056210e+00
      2.22160673e+00 2.29962540e+00 2.32786894e+00 2.64702654e+00
      2.20527053e+00 2.86387444e+00 2.26076555e+00 2.62413287e+00
      2.18392372e+00 2.39325833e+00 2.30666661e+00 2.60365438e+00
      2.22160673e+00 2.29962540e+00 2.32786894e+00 2.64702654e+00
      2.14738297e+00 2.20229006e+00 2.24250674e+00 2.49509025e+00
      2.15994430e+00 2.49514556e+00 2.15764713e+00 2.47269249e+00
      2.20527053e+00 2.86387444e+00 2.26076555e+00 2.62413287e+00
      2.22160673e+00 2.29962540e+00 2.32786894e+00 2.64702654e+00
      2.21518993e+00 2.67005086e+00 2.31051350e+00 2.60056210e+00
      2.14482760e+00 2.55072474e+00 2.15121961e+00 2.50293279e+00
      2.21518993e+00 2.67005086e+00 2.31051350e+00 2.60056210e+00
      2.24005675e+00 2.37117910e+00 2.33251238e+00 2.62642002e+00
      2.24005675e+00 2.37117910e+00 2.33251238e+00 2.62642002e+00
      2.21518993e+00 2.67005086e+00 2.31051350e+00 2.60056210e+00
      2.18392372e+00 2.39325833e+00 2.30666661e+00 2.60365438e+00
      2.21518993e+00 2.67005086e+00 2.31051350e+00 2.60056210e+00
      2.18392372e+00 2.39325833e+00 2.30666661e+00 2.60365438e+00
      2.21518993e+00 2.67005086e+00 2.31051350e+00 2.60056210e+00
      2.14482760e+00 2.55072474e+00 2.15121961e+00 2.50293279e+00
      2.14738297e+00 2.20229006e+00 2.24250674e+00 2.49509025e+00
      2.12173915e+00 2.23809528e+00 2.23846149e+00 2.75183988e+00
      2.14369512e+00 1.91467571e+00 2.42987800e+00 2.79144406e+00
      2.19880414e+00 2.37155962e+00 2.30343008e+00 2.85235047e+00
      2.21407175e+00 2.57435894e+00 2.35999990e+00 2.91228342e+00
      2.21407175e+00 2.57435894e+00 2.35999990e+00 2.91228342e+00
      2.16444445e+00 2.46000004e+00 2.20506334e+00 2.81000996e+00
      2.15657306e+00 1.94074070e+00 2.25128198e+00 2.77724552e+00
      2.16567159e+00 2.10227275e+00 2.29780555e+00 2.75063157e+00
      2.21407175e+00 2.57435894e+00 2.35999990e+00 2.91228342e+00
      2.19880414e+00 2.37155962e+00 2.30343008e+00 2.85235047e+00
      2.14369512e+00 1.91467571e+00 2.42987800e+00 2.79144406e+00
      2.12247849e+00 2.03703713e+00 2.22631574e+00 2.74148178e+00
      2.12173915e+00 2.23809528e+00 2.23846149e+00 2.75183988e+00
      2.12247849e+00 2.03703713e+00 2.22631574e+00 2.74148178e+00
      2.14369512e+00 1.91467571e+00 2.42987800e+00 2.79144406e+00
      2.12247849e+00 2.03703713e+00 2.22631574e+00 2.74148178e+00
      2.15657306e+00 1.94074070e+00 2.25128198e+00 2.77724552e+00
      2.19880414e+00 2.37155962e+00 2.30343008e+00 2.85235047e+00
      2.15789485e+00 1.83103454e+00 2.32417583e+00 2.78765941e+00
      2.16444445e+00 2.46000004e+00 2.20506334e+00 2.81000996e+00
      2.21407175e+00 2.57435894e+00 2.35999990e+00 2.91228342e+00
      2.16567159e+00 2.10227275e+00 2.29780555e+00 2.75063157e+00
      2.16005874e+00 2.02517986e+00 2.33038354e+00 2.78057861e+00
      2.16543579e+00 2.11654139e+00 2.30182934e+00 2.79093575e+00
      2.14369512e+00 1.91467571e+00 2.42987800e+00 2.79144406e+00
      2.16567159e+00 2.10227275e+00 2.29780555e+00 2.75063157e+00
      2.14369512e+00 1.91467571e+00 2.42987800e+00 2.79144406e+00
      2.16005874e+00 2.02517986e+00 2.33038354e+00 2.78057861e+00
      2.15657306e+00 1.94074070e+00 2.25128198e+00 2.77724552e+00
      2.16543579e+00 2.11654139e+00 2.30182934e+00 2.79093575e+00
      2.14369512e+00 1.91467571e+00 2.42987800e+00 2.79144406e+00
      2.16543579e+00 2.11654139e+00 2.30182934e+00 2.79093575e+00
      2.15789485e+00 1.83103454e+00 2.32417583e+00 2.78765941e+00
      2.12173915e+00 2.23809528e+00 2.23846149e+00 2.75183988e+00
      2.12247849e+00 2.03703713e+00 2.22631574e+00 2.74148178e+00
      2.12173915e+00 2.23809528e+00 2.23846149e+00 2.75183988e+00
      2.15789485e+00 1.83103454e+00 2.32417583e+00 2.78765941e+00
      2.14369512e+00 1.91467571e+00 2.42987800e+00 2.79144406e+00
      2.15789485e+00 1.83103454e+00 2.32417583e+00 2.78765941e+00
      2.16005874e+00 2.02517986e+00 2.33038354e+00 2.78057861e+00
      1.19330454e+00 1.13259673e+00 2.36363626e+00 1.69802284e+00
      1.13642049e+00 1.13235295e+00 1.29357803e+00 1.54604971e+00
      1.15228426e+00 1.13729513e+00 1.19920313e+00 1.56287718e+00
      1.16612375e+00 1.08550191e+00 2.36363626e+00 1.68168342e+00
      1.14086294e+00 1.12951171e+00 1.24427485e+00 1.60301971e+00
      1.16612375e+00 1.08550191e+00 2.36363626e+00 1.68168342e+00
      1.14017522e+00 1.13655460e+00 1.36708856e+00 1.54709947e+00
      1.19330454e+00 1.13259673e+00 2.36363626e+00 1.69802284e+00
      1.13642049e+00 1.13235295e+00 1.29357803e+00 1.54604971e+00
      1.13642049e+00 1.13235295e+00 1.29357803e+00 1.54604971e+00
      1.19330454e+00 1.13259673e+00 2.36363626e+00 1.69802284e+00
      1.13470876e+00 1.14285719e+00 1.50000000e+00 1.56776500e+00
      1.13767207e+00 1.12500000e+00 1.38372087e+00 1.54604971e+00
      1.13767207e+00 1.12500000e+00 1.38372087e+00 1.54604971e+00
      1.13470876e+00 1.14285719e+00 1.50000000e+00 1.56776500e+00
      1.14086294e+00 1.12951171e+00 1.24427485e+00 1.60301971e+00
      1.18191719e+00 1.08252430e+00 1.39999998e+00 1.69139552e+00
      1.13903058e+00 1.13247859e+00 1.27586210e+00 1.56122446e+00
      1.18191719e+00 1.08252430e+00 1.39999998e+00 1.69139552e+00
      1.18191719e+00 1.08252430e+00 1.39999998e+00 1.69139552e+00
      1.15228426e+00 1.13729513e+00 1.19920313e+00 1.56287718e+00
      1.15228426e+00 1.13729513e+00 1.19920313e+00 1.56287718e+00
      1.13903058e+00 1.13247859e+00 1.27586210e+00 1.56122446e+00
      1.18191719e+00 1.08252430e+00 1.39999998e+00 1.69139552e+00
      1.13642049e+00 1.13235295e+00 1.29357803e+00 1.54604971e+00
      1.14086294e+00 1.12951171e+00 1.24427485e+00 1.60301971e+00
      1.15228426e+00 1.13729513e+00 1.19920313e+00 1.56287718e+00
      1.13431013e+00 1.15231788e+00 1.38888884e+00 1.53759718e+00
      1.15228426e+00 1.13729513e+00 1.19920313e+00 1.56287718e+00
      1.15228426e+00 1.13729513e+00 1.19920313e+00 1.56287718e+00
      1.13767207e+00 1.12500000e+00 1.38372087e+00 1.54604971e+00
      1.14086294e+00 1.12951171e+00 1.24427485e+00 1.60301971e+00
      1.18191719e+00 1.08252430e+00 1.39999998e+00 1.69139552e+00
      1.15228426e+00 1.13729513e+00 1.19920313e+00 1.56287718e+00
      1.19330454e+00 1.13259673e+00 2.36363626e+00 1.69802284e+00
      1.18191719e+00 1.08252430e+00 1.39999998e+00 1.69139552e+00
      1.18191719e+00 1.08252430e+00 1.39999998e+00 1.69139552e+00
      1.13767207e+00 1.12500000e+00 1.38372087e+00 1.54604971e+00
      1.15228426e+00 1.13729513e+00 1.19920313e+00 1.56287718e+00
      1.13642049e+00 1.13235295e+00 1.29357803e+00 1.54604971e+00
      1.18191719e+00 1.08252430e+00 1.39999998e+00 1.69139552e+00
      1.13642049e+00 1.13235295e+00 1.29357803e+00 1.54604971e+00
      1.13470876e+00 1.14285719e+00 1.50000000e+00 1.56776500e+00
      1.13431013e+00 1.15231788e+00 1.38888884e+00 1.53759718e+00
      1.14086294e+00 1.12951171e+00 1.24427485e+00 1.60301971e+00
      1.13431013e+00 1.15231788e+00 1.38888884e+00 1.53759718e+00
      1.15228426e+00 1.13729513e+00 1.19920313e+00 1.56287718e+00
      1.16612375e+00 1.08550191e+00 2.36363626e+00 1.68168342e+00
      1.14017522e+00 1.13655460e+00 1.36708856e+00 1.54709947e+00
      1.13431013e+00 1.15231788e+00 1.38888884e+00 1.53759718e+00
      1.14017522e+00 1.13655460e+00 1.36708856e+00 1.54709947e+00
      1.13903058e+00 1.13247859e+00 1.27586210e+00 1.56122446e+00
      1.14086294e+00 1.12951171e+00 1.24427485e+00 1.60301971e+00
      1.18191719e+00 1.08252430e+00 1.39999998e+00 1.69139552e+00
      1.16612375e+00 1.08550191e+00 2.36363626e+00 1.68168342e+00
      1.13642049e+00 1.13235295e+00 1.29357803e+00 1.54604971e+00
      1.14086294e+00 1.12951171e+00 1.24427485e+00 1.60301971e+00
      1.13431013e+00 1.15231788e+00 1.38888884e+00 1.53759718e+00
      1.18191719e+00 1.08252430e+00 1.39999998e+00 1.69139552e+00
      1.13767207e+00 1.12500000e+00 1.38372087e+00 1.54604971e+00
      1.18490875e+00 1.15374148e+00 1.28686333e+00 1.61037648e+00
      1.14274442e+00 1.11568129e+00 1.24013162e+00 1.56151414e+00
      1.15683448e+00 1.10062110e+00 1.37428570e+00 1.58798552e+00
      1.15683448e+00 1.10062110e+00 1.37428570e+00 1.58798552e+00
      1.15683448e+00 1.10062110e+00 1.37428570e+00 1.58798552e+00
      1.16871417e+00 1.13477087e+00 1.30259371e+00 1.56187844e+00
      1.16871417e+00 1.13477087e+00 1.30259371e+00 1.56187844e+00
      1.15848219e+00 1.10290551e+00 1.36824322e+00 1.50669634e+00
      1.14274442e+00 1.11568129e+00 1.24013162e+00 1.56151414e+00
      1.18600821e+00 1.13037980e+00 1.33666670e+00 1.63278675e+00
      1.14274442e+00 1.11568129e+00 1.24013162e+00 1.56151414e+00
      1.18600821e+00 1.13037980e+00 1.33666670e+00 1.63278675e+00
      1.17609560e+00 1.13272011e+00 1.37795281e+00 1.58609927e+00
      1.17380559e+00 1.15542519e+00 1.33114755e+00 1.60367763e+00
      1.18600821e+00 1.13037980e+00 1.33666670e+00 1.63278675e+00
      1.16871417e+00 1.13477087e+00 1.30259371e+00 1.56187844e+00
      1.18600821e+00 1.13037980e+00 1.33666670e+00 1.63278675e+00
      1.18600821e+00 1.13037980e+00 1.33666670e+00 1.63278675e+00
      1.17545307e+00 1.14899719e+00 1.34814811e+00 1.56210327e+00
      1.17545307e+00 1.14899719e+00 1.34814811e+00 1.56210327e+00
      1.15683448e+00 1.10062110e+00 1.37428570e+00 1.58798552e+00
      1.17609560e+00 1.13272011e+00 1.37795281e+00 1.58609927e+00
      1.14274442e+00 1.11568129e+00 1.24013162e+00 1.56151414e+00
      1.18600821e+00 1.13037980e+00 1.33666670e+00 1.63278675e+00
      1.17380559e+00 1.15542519e+00 1.33114755e+00 1.60367763e+00
      1.15848219e+00 1.10290551e+00 1.36824322e+00 1.50669634e+00
      1.18490875e+00 1.15374148e+00 1.28686333e+00 1.61037648e+00
      1.16871417e+00 1.13477087e+00 1.30259371e+00 1.56187844e+00
      1.17545307e+00 1.14899719e+00 1.34814811e+00 1.56210327e+00
      1.18490875e+00 1.15374148e+00 1.28686333e+00 1.61037648e+00
      1.15379167e+00 1.08062708e+00 1.38036811e+00 1.56555629e+00
      1.17380559e+00 1.15542519e+00 1.33114755e+00 1.60367763e+00
      1.15683448e+00 1.10062110e+00 1.37428570e+00 1.58798552e+00
      1.15683448e+00 1.10062110e+00 1.37428570e+00 1.58798552e+00
      1.17545307e+00 1.14899719e+00 1.34814811e+00 1.56210327e+00
      1.18490875e+00 1.15374148e+00 1.28686333e+00 1.61037648e+00
      1.15379167e+00 1.08062708e+00 1.38036811e+00 1.56555629e+00
      1.18490875e+00 1.15374148e+00 1.28686333e+00 1.61037648e+00
      1.15683448e+00 1.10062110e+00 1.37428570e+00 1.58798552e+00
      1.15848219e+00 1.10290551e+00 1.36824322e+00 1.50669634e+00
      1.15848219e+00 1.10290551e+00 1.36824322e+00 1.50669634e+00
      1.17545307e+00 1.14899719e+00 1.34814811e+00 1.56210327e+00
      1.18375719e+00 1.16088760e+00 1.30563796e+00 1.57011998e+00
      1.17609560e+00 1.13272011e+00 1.37795281e+00 1.58609927e+00
      1.15683448e+00 1.10062110e+00 1.37428570e+00 1.58798552e+00
      1.17380559e+00 1.15542519e+00 1.33114755e+00 1.60367763e+00
      1.14274442e+00 1.11568129e+00 1.24013162e+00 1.56151414e+00
      1.17609560e+00 1.13272011e+00 1.37795281e+00 1.58609927e+00
      1.15683448e+00 1.10062110e+00 1.37428570e+00 1.58798552e+00
      1.16871417e+00 1.13477087e+00 1.30259371e+00 1.56187844e+00
      1.18490875e+00 1.15374148e+00 1.28686333e+00 1.61037648e+00
      1.14274442e+00 1.11568129e+00 1.24013162e+00 1.56151414e+00
      1.15848219e+00 1.10290551e+00 1.36824322e+00 1.50669634e+00
      1.17380559e+00 1.15542519e+00 1.33114755e+00 1.60367763e+00
      1.15848219e+00 1.10290551e+00 1.36824322e+00 1.50669634e+00
      1.15848219e+00 1.10290551e+00 1.36824322e+00 1.50669634e+00
      1.16871417e+00 1.13477087e+00 1.30259371e+00 1.56187844e+00
      1.15848219e+00 1.10290551e+00 1.36824322e+00 1.50669634e+00
      1.15683448e+00 1.10062110e+00 1.37428570e+00 1.58798552e+00
      1.18490875e+00 1.15374148e+00 1.28686333e+00 1.61037648e+00
      1.17753005e+00 1.14152205e+00 1.30194807e+00 1.65123343e+00
      1.15180099e+00 1.11597943e+00 1.33333337e+00 1.64800227e+00
      1.14939940e+00 1.08241081e+00 1.24242425e+00 1.67092800e+00
      1.16819322e+00 1.12967920e+00 1.50467288e+00 1.61115718e+00
      1.19948411e+00 1.14733970e+00 1.36594200e+00 1.68513083e+00
      1.15112782e+00 1.08130085e+00 1.61616158e+00 1.64210486e+00
      1.16994023e+00 1.14563107e+00 1.31060600e+00 1.63997781e+00
      1.15112782e+00 1.08130085e+00 1.61616158e+00 1.64210486e+00
      1.16994023e+00 1.14563107e+00 1.31060600e+00 1.63997781e+00
      1.15112782e+00 1.08130085e+00 1.61616158e+00 1.64210486e+00
      1.17753005e+00 1.14152205e+00 1.30194807e+00 1.65123343e+00
      1.16994023e+00 1.14563107e+00 1.31060600e+00 1.63997781e+00
      1.19948411e+00 1.14733970e+00 1.36594200e+00 1.68513083e+00
      1.16819322e+00 1.12967920e+00 1.50467288e+00 1.61115718e+00
      1.15112782e+00 1.08130085e+00 1.61616158e+00 1.64210486e+00
      1.19948411e+00 1.14733970e+00 1.36594200e+00 1.68513083e+00
      1.14939940e+00 1.08241081e+00 1.24242425e+00 1.67092800e+00
      1.15180099e+00 1.11597943e+00 1.33333337e+00 1.64800227e+00
      1.15112782e+00 1.08130085e+00 1.61616158e+00 1.64210486e+00
      1.16609001e+00 1.14836800e+00 1.23417723e+00 1.62336969e+00
      1.17753005e+00 1.14152205e+00 1.30194807e+00 1.65123343e+00
      1.15475190e+00 1.12942779e+00 1.36423838e+00 1.58574188e+00
      1.15112782e+00 1.08130085e+00 1.61616158e+00 1.64210486e+00
      1.15112782e+00 1.08130085e+00 1.61616158e+00 1.64210486e+00
      1.15112782e+00 1.08130085e+00 1.61616158e+00 1.64210486e+00
      1.15112782e+00 1.08130085e+00 1.61616158e+00 1.64210486e+00
      1.16609001e+00 1.14836800e+00 1.23417723e+00 1.62336969e+00
      1.16819322e+00 1.12967920e+00 1.50467288e+00 1.61115718e+00
      1.16609001e+00 1.14836800e+00 1.23417723e+00 1.62336969e+00
      1.16609001e+00 1.14836800e+00 1.23417723e+00 1.62336969e+00
      1.15112782e+00 1.08130085e+00 1.61616158e+00 1.64210486e+00
      1.17753005e+00 1.14152205e+00 1.30194807e+00 1.65123343e+00
      1.14809275e+00 1.08771932e+00 1.25000000e+00 1.64108098e+00
      1.16994023e+00 1.14563107e+00 1.31060600e+00 1.63997781e+00
      1.15180099e+00 1.11597943e+00 1.33333337e+00 1.64800227e+00
      1.14809275e+00 1.08771932e+00 1.25000000e+00 1.64108098e+00
      1.17753005e+00 1.14152205e+00 1.30194807e+00 1.65123343e+00
      1.16609001e+00 1.14836800e+00 1.23417723e+00 1.62336969e+00
      1.17753005e+00 1.14152205e+00 1.30194807e+00 1.65123343e+00
      1.16994023e+00 1.14563107e+00 1.31060600e+00 1.63997781e+00
      1.18343198e+00 1.29999995e+00 1.18823528e+00 1.19751668e+00
      1.13157892e+00 1.18222225e+00 1.31443298e+00 1.14684522e+00
      1.16396248e+00 1.15217388e+00 1.33474576e+00 1.18216169e+00
      1.18343198e+00 1.29999995e+00 1.18823528e+00 1.19751668e+00
      1.18343198e+00 1.29999995e+00 1.18823528e+00 1.19751668e+00
      1.16766465e+00 1.18899083e+00 1.17994106e+00 1.19760478e+00
      1.18343198e+00 1.29999995e+00 1.18823528e+00 1.19751668e+00
      1.16145837e+00 1.18032789e+00 1.17448676e+00 1.19047618e+00
      1.18343198e+00 1.29999995e+00 1.18823528e+00 1.19751668e+00
      1.19230771e+00 1.21188116e+00 1.22040820e+00 1.21053541e+00
      1.18343198e+00 1.29999995e+00 1.18823528e+00 1.19751668e+00
      1.19465327e+00 1.23620307e+00 1.21340382e+00 1.21080840e+00
      1.13157892e+00 1.18222225e+00 1.31443298e+00 1.14684522e+00
      1.16145837e+00 1.18032789e+00 1.17448676e+00 1.19047618e+00
      1.16766465e+00 1.18899083e+00 1.17994106e+00 1.19760478e+00
      1.20382690e+00 1.22633743e+00 1.18688524e+00 1.20577180e+00
      1.20382690e+00 1.22633743e+00 1.18688524e+00 1.20577180e+00
      1.16766465e+00 1.18899083e+00 1.17994106e+00 1.19760478e+00
      1.16766465e+00 1.18899083e+00 1.17994106e+00 1.19760478e+00
      1.19915259e+00 1.22912621e+00 1.21224487e+00 1.23068595e+00
      1.16766465e+00 1.18899083e+00 1.17994106e+00 1.19760478e+00
      1.16766465e+00 1.18899083e+00 1.17994106e+00 1.19760478e+00
      1.16145837e+00 1.18899083e+00 1.16763854e+00 1.19047618e+00
      1.19915259e+00 1.22912621e+00 1.21224487e+00 1.23068595e+00
      1.18343198e+00 1.29999995e+00 1.18823528e+00 1.19751668e+00
      1.16766465e+00 1.18899083e+00 1.17994106e+00 1.19760478e+00
      1.16766465e+00 1.18899083e+00 1.17994106e+00 1.19760478e+00
      1.13157892e+00 1.18222225e+00 1.31443298e+00 1.14684522e+00
      1.18290603e+00 1.16790128e+00 1.19964349e+00 1.21082246e+00
      1.13157892e+00 1.18222225e+00 1.31443298e+00 1.14684522e+00
      1.16766465e+00 1.18899083e+00 1.17994106e+00 1.19760478e+00
      1.16766465e+00 1.18899083e+00 1.17994106e+00 1.19760478e+00
      1.18343198e+00 1.29999995e+00 1.18823528e+00 1.19751668e+00
      1.16766465e+00 1.18899083e+00 1.17994106e+00 1.19760478e+00
      1.18343198e+00 1.29999995e+00 1.18823528e+00 1.19751668e+00
      1.19465327e+00 1.23620307e+00 1.21340382e+00 1.21080840e+00
      1.16766465e+00 1.18899083e+00 1.17994106e+00 1.19760478e+00
      1.16766465e+00 1.18899083e+00 1.17994106e+00 1.19760478e+00
      1.16396248e+00 1.15217388e+00 1.33474576e+00 1.18216169e+00
      1.18343198e+00 1.29999995e+00 1.18823528e+00 1.19751668e+00
      1.20382690e+00 1.22633743e+00 1.18688524e+00 1.20577180e+00
      1.16145837e+00 1.18899083e+00 1.16763854e+00 1.19047618e+00
      1.16145837e+00 1.18032789e+00 1.17448676e+00 1.19047618e+00
      1.16766465e+00 1.18899083e+00 1.17994106e+00 1.19760478e+00
      1.13157892e+00 1.18222225e+00 1.31443298e+00 1.14684522e+00
      1.16766465e+00 1.18899083e+00 1.17994106e+00 1.19760478e+00
      1.16766465e+00 1.18899083e+00 1.17994106e+00 1.19760478e+00
      1.16145837e+00 1.18899083e+00 1.16763854e+00 1.19047618e+00
      1.16145837e+00 1.18899083e+00 1.16763854e+00 1.19047618e+00
      1.19915259e+00 1.22912621e+00 1.21224487e+00 1.23068595e+00
      1.19915259e+00 1.22912621e+00 1.21224487e+00 1.23068595e+00
      1.20382690e+00 1.22633743e+00 1.18688524e+00 1.20577180e+00
      1.19915259e+00 1.22912621e+00 1.21224487e+00 1.23068595e+00
      1.16766465e+00 1.18899083e+00 1.17994106e+00 1.19760478e+00
      1.19230771e+00 1.21188116e+00 1.22040820e+00 1.21053541e+00
      1.18343198e+00 1.29999995e+00 1.18823528e+00 1.19751668e+00
      1.16145837e+00 1.18899083e+00 1.16763854e+00 1.19047618e+00
      1.18343198e+00 1.29999995e+00 1.18823528e+00 1.19751668e+00
      1.16145837e+00 1.18032789e+00 1.17448676e+00 1.19047618e+00
      1.16766465e+00 1.18899083e+00 1.17994106e+00 1.19760478e+00
      1.15649283e+00 1.24452555e+00 1.14511871e+00 1.34961128e+00
      1.19251335e+00 1.22459888e+00 1.18300653e+00 1.40265083e+00
      1.18867922e+00 1.15206182e+00 1.23241591e+00 1.42110026e+00
      1.20248330e+00 1.22196257e+00 1.23182714e+00 1.40513349e+00
      1.17126548e+00 1.18969560e+00 1.19455254e+00 1.36563134e+00
      1.20248330e+00 1.22196257e+00 1.23182714e+00 1.40513349e+00
      1.16666663e+00 1.21385539e+00 1.14765096e+00 1.37515044e+00
      1.18589127e+00 1.20129871e+00 1.19921875e+00 1.39824021e+00
      1.18555558e+00 1.17824769e+00 1.17684209e+00 1.42505884e+00
      1.17126548e+00 1.18969560e+00 1.19455254e+00 1.36563134e+00
      1.22270274e+00 1.23115575e+00 1.21834064e+00 1.45496845e+00
      1.20248330e+00 1.22196257e+00 1.23182714e+00 1.40513349e+00
      1.16666663e+00 1.21385539e+00 1.14765096e+00 1.37515044e+00
      1.15649283e+00 1.24452555e+00 1.14511871e+00 1.34961128e+00
      1.17126548e+00 1.18969560e+00 1.19455254e+00 1.36563134e+00
      1.18867922e+00 1.15206182e+00 1.23241591e+00 1.42110026e+00
      1.18867922e+00 1.15206182e+00 1.23241591e+00 1.42110026e+00
      1.19251335e+00 1.22459888e+00 1.18300653e+00 1.40265083e+00
      1.17126548e+00 1.18969560e+00 1.19455254e+00 1.36563134e+00
      1.18555558e+00 1.17824769e+00 1.17684209e+00 1.42505884e+00
      1.18374169e+00 1.19141912e+00 1.16699803e+00 1.42167890e+00
      1.18867922e+00 1.15206182e+00 1.23241591e+00 1.42110026e+00
      1.17126548e+00 1.18969560e+00 1.19455254e+00 1.36563134e+00
      1.18555558e+00 1.17824769e+00 1.17684209e+00 1.42505884e+00
      1.19251335e+00 1.22459888e+00 1.18300653e+00 1.40265083e+00
      1.20248330e+00 1.22196257e+00 1.23182714e+00 1.40513349e+00
      1.16666663e+00 1.21385539e+00 1.14765096e+00 1.37515044e+00
      1.18342543e+00 1.29670334e+00 1.13806701e+00 1.38563526e+00
      1.16666663e+00 1.21385539e+00 1.14765096e+00 1.37515044e+00
      1.18589127e+00 1.20129871e+00 1.19921875e+00 1.39824021e+00
      1.18555558e+00 1.17824769e+00 1.17684209e+00 1.42505884e+00
      1.18374169e+00 1.19141912e+00 1.16699803e+00 1.42167890e+00
      1.18589127e+00 1.20129871e+00 1.19921875e+00 1.39824021e+00
      1.18342543e+00 1.29670334e+00 1.13806701e+00 1.38563526e+00
      1.16666663e+00 1.21385539e+00 1.14765096e+00 1.37515044e+00
      1.18374169e+00 1.19141912e+00 1.16699803e+00 1.42167890e+00
      1.17126548e+00 1.18969560e+00 1.19455254e+00 1.36563134e+00
      1.15649283e+00 1.24452555e+00 1.14511871e+00 1.34961128e+00
      1.18342543e+00 1.29670334e+00 1.13806701e+00 1.38563526e+00
      1.18555558e+00 1.17824769e+00 1.17684209e+00 1.42505884e+00
      1.16666663e+00 1.21385539e+00 1.14765096e+00 1.37515044e+00
      1.18589127e+00 1.20129871e+00 1.19921875e+00 1.39824021e+00
      1.17126548e+00 1.18969560e+00 1.19455254e+00 1.36563134e+00
      1.20248330e+00 1.22196257e+00 1.23182714e+00 1.40513349e+00
      1.16666663e+00 1.21385539e+00 1.14765096e+00 1.37515044e+00
      1.16666663e+00 1.21385539e+00 1.14765096e+00 1.37515044e+00
      1.18867922e+00 1.15206182e+00 1.23241591e+00 1.42110026e+00
      1.15649283e+00 1.24452555e+00 1.14511871e+00 1.34961128e+00
      1.17126548e+00 1.18969560e+00 1.19455254e+00 1.36563134e+00
      1.17126548e+00 1.18969560e+00 1.19455254e+00 1.36563134e+00
      1.18374169e+00 1.19141912e+00 1.16699803e+00 1.42167890e+00
      1.22270274e+00 1.23115575e+00 1.21834064e+00 1.45496845e+00
      1.16666663e+00 1.21385539e+00 1.14765096e+00 1.37515044e+00
      1.15649283e+00 1.24452555e+00 1.14511871e+00 1.34961128e+00
      1.15649283e+00 1.24452555e+00 1.14511871e+00 1.34961128e+00
      1.20248330e+00 1.22196257e+00 1.23182714e+00 1.40513349e+00
      1.17126548e+00 1.18969560e+00 1.19455254e+00 1.36563134e+00
      1.17126548e+00 1.18969560e+00 1.19455254e+00 1.36563134e+00
      1.18589127e+00 1.20129871e+00 1.19921875e+00 1.39824021e+00
      1.18867922e+00 1.15206182e+00 1.23241591e+00 1.42110026e+00
      1.17295313e+00 1.15258861e+00 1.15555561e+00 1.37911057e+00
      1.17077041e+00 1.21929824e+00 1.16012561e+00 1.38281000e+00
      1.18072283e+00 1.18539321e+00 1.18762088e+00 1.39481032e+00
      1.16607773e+00 1.21484375e+00 1.16637170e+00 1.39307380e+00
      1.19188190e+00 1.20916903e+00 1.19092631e+00 1.40254486e+00
      1.18072283e+00 1.18539321e+00 1.18762088e+00 1.39481032e+00
      1.17077041e+00 1.21929824e+00 1.16012561e+00 1.38281000e+00
      1.16607773e+00 1.21484375e+00 1.16637170e+00 1.39307380e+00
      1.19557190e+00 1.29338849e+00 1.20000005e+00 1.39287066e+00
      1.17665863e+00 1.27672958e+00 1.18927443e+00 1.39570701e+00
      1.19557190e+00 1.29338849e+00 1.20000005e+00 1.39287066e+00
      1.20798516e+00 1.20385671e+00 1.20987654e+00 1.46085572e+00
      1.20267856e+00 1.21848738e+00 1.20947182e+00 1.41160738e+00
      1.18072283e+00 1.18539321e+00 1.18762088e+00 1.39481032e+00
      1.19188190e+00 1.20916903e+00 1.19092631e+00 1.40254486e+00
      1.17295313e+00 1.15258861e+00 1.15555561e+00 1.37911057e+00
      1.19262671e+00 1.21923935e+00 1.18498170e+00 1.38766646e+00
      1.19262671e+00 1.21923935e+00 1.18498170e+00 1.38766646e+00
      1.19557190e+00 1.29338849e+00 1.20000005e+00 1.39287066e+00
      1.17665863e+00 1.27672958e+00 1.18927443e+00 1.39570701e+00
      1.17665863e+00 1.27672958e+00 1.18927443e+00 1.39570701e+00
      1.15139437e+00 1.17291069e+00 1.15576327e+00 1.35933435e+00
      1.15139437e+00 1.17291069e+00 1.15576327e+00 1.35933435e+00
      1.18072283e+00 1.18539321e+00 1.18762088e+00 1.39481032e+00
      1.19188190e+00 1.20916903e+00 1.19092631e+00 1.40254486e+00
      1.17665863e+00 1.27672958e+00 1.18927443e+00 1.39570701e+00
      1.17665863e+00 1.27672958e+00 1.18927443e+00 1.39570701e+00
      1.16607773e+00 1.21484375e+00 1.16637170e+00 1.39307380e+00
      1.20267856e+00 1.21848738e+00 1.20947182e+00 1.41160738e+00
      1.17077041e+00 1.21929824e+00 1.16012561e+00 1.38281000e+00
      1.16607773e+00 1.21484375e+00 1.16637170e+00 1.39307380e+00
      1.17665863e+00 1.27672958e+00 1.18927443e+00 1.39570701e+00
      1.17077041e+00 1.21929824e+00 1.16012561e+00 1.38281000e+00
      1.17077041e+00 1.21929824e+00 1.16012561e+00 1.38281000e+00
      1.17665863e+00 1.27672958e+00 1.18927443e+00 1.39570701e+00
      1.19188190e+00 1.20916903e+00 1.19092631e+00 1.40254486e+00
      1.18072283e+00 1.18539321e+00 1.18762088e+00 1.39481032e+00
      1.16607773e+00 1.21484375e+00 1.16637170e+00 1.39307380e+00
      1.17295313e+00 1.15258861e+00 1.15555561e+00 1.37911057e+00
      1.17665863e+00 1.27672958e+00 1.18927443e+00 1.39570701e+00</data></samples>
  <responses type_id="opencv-matrix">
    <rows>640</rows>
    <cols>1</cols>
    <dt>f</dt>
    <data>
      0. 0. 0. 0. 0. 0. 0. 0. 0. 0. 0. 0. 0. 0. 0. 0. 0. 0. 0. 0. 0. 0.
      0. 0. 0. 0. 0. 0. 0. 0. 0. 0. 0. 0. 0. 0. 0. 0. 0. 0. 0. 0. 0. 0.
      0. 0. 0. 0. 0. 0. 0. 0. 0. 0. 0. 0. 0. 0. 0. 0. 0. 0. 0. 0. 0. 0.
      0. 0. 0. 0. 0. 0. 0. 0. 0. 0. 0. 0. 0. 0. 0. 0. 0. 0. 0. 0. 0. 0.
      0. 0. 0. 0. 0. 0. 0. 0. 0. 0. 0. 0. 0. 0. 0. 0. 0. 0. 0. 0. 0. 0.
      0. 0. 0. 0. 0. 0. 0. 0. 0. 0. 0. 0. 0. 0. 0. 0. 0. 0. 0. 0. 0. 0.
      0. 0. 0. 0. 0. 0. 0. 0. 0. 0. 0. 0. 0. 0. 0. 0. 0. 0. 0. 0. 0. 0.
      0. 0. 0. 0. 0. 0. 1. 1. 1. 1. 1. 1. 1. 1. 1. 1. 1. 1. 1. 1. 1. 1.
      1. 1. 1. 1. 1. 1. 1. 1. 1. 1. 1. 1. 1. 1. 1. 1. 1. 1. 1. 1. 1. 1.
      1. 1. 1. 1. 1. 1. 1. 1. 1. 1. 1. 1. 1. 1. 1. 1. 1. 1. 1. 1. 1. 1.
      1. 1. 1. 1. 1. 1. 1. 1. 1. 1. 1. 1. 1. 1. 1. 1. 1. 1. 1. 1. 1. 1.
      1. 1. 1. 1. 1. 1. 1. 1. 1. 1. 1. 1. 1. 1. 1. 1. 1. 1. 1. 1. 1. 1.
      1. 1. 1. 1. 1. 1. 1. 1. 1. 1. 1. 1. 1. 1. 1. 1. 1. 1. 1. 1. 1. 1.
      1. 1. 1. 1. 1. 1. 1. 1. 1. 1. 1. 1. 1. 1. 1. 1. 1. 1. 1. 1. 1. 1.
      1. 1. 1. 1. 1. 1. 1. 1. 1. 1. 1. 1. 2. 2. 2. 2. 2. 2. 2. 2. 2. 2.
      2. 2. 2. 2. 2. 2. 2. 2. 2. 2. 2. 2. 2. 2. 2. 2. 2. 2. 2. 2. 2. 2.
      2. 2. 2. 2. 2. 2. 2. 2. 2. 2. 2. 2. 2. 2. 2. 2. 2. 2. 2. 2. 2. 2.
      2. 2. 2. 2. 2. 2. 2. 2. 2. 2. 2. 2. 2. 2. 2. 2. 2. 2. 2. 2. 2. 2.
      2. 2. 2. 2. 2. 2. 2. 2. 2. 2. 2. 2. 2. 2. 2. 2. 2. 2. 2. 2. 2. 2.
      2. 2. 2. 2. 2. 2. 2. 2. 2. 2. 2. 2. 2. 2. 2. 2. 2. 2. 2. 2. 2. 2.
      2. 2. 2. 2. 2. 2. 2. 2. 2. 2. 2. 2. 2. 2. 2. 2. 2. 2. 2. 2. 2. 2.
      2. 2. 2. 2. 2. 2. 2. 2. 2. 2. 2. 2. 2. 2. 2. 2. 2. 2. 3. 3. 3. 3.
      3. 3. 3. 3. 3. 3. 3. 3. 3. 3. 3. 3. 3. 3. 3. 3. 3. 3. 3. 3. 3. 3.
      3. 3. 3. 3. 3. 3. 3. 3. 3. 3. 3. 3. 3. 3. 3. 3. 3. 3. 3. 3. 3. 3.
      3. 3. 3. 3. 3. 3. 3. 3. 3. 3. 3. 3. 3. 3. 3. 3. 3. 3. 3. 3. 3. 3.
      3. 3. 3. 3. 3. 3. 3. 3. 3. 3. 3. 3. 3. 3. 3. 3. 3. 3. 3. 3. 3. 3.
      3. 3. 3. 3. 3. 3. 3. 3. 3. 3. 3. 3. 3. 3. 3. 3. 3. 3. 3. 3. 3. 3.
      3. 3. 3. 3. 3. 3. 3. 3. 3. 3. 3. 3. 3. 3. 3. 3. 3. 3. 3. 3. 3. 3.
      3. 3. 3. 3. 3. 3. 3. 3. 3. 3. 3. 3. 3. 3. 3. 3. 3. 3. 3. 3. 3. 3.
      3. 3.</data></responses></opencv_ml_knn>
</opencv_storage>
